svm_type c_svc
kernel_type linear
nr_class 2
total_sv 1117
rho -0.498368
label 1 -1
nr_sv 568 549
SV
64 1:-1 2:1 5:1 6:1 7:1 8:-1 10:1 14:1 15:-1 16:1 17:1 18:1 19:1 21:1 23:1 26:1 29:1 30:1 31:1 32:1 33:1 34:1 35:1 36:-1 37:1 39:1 41:-1 42:1 45:1 46:1 
64 1:1 2:1 5:1 6:1 7:1 8:-1 11:1 12:1 15:1 16:1 17:1 18:1 19:1 21:1 24:1 26:1 29:1 30:1 32:1 33:1 34:1 35:1 36:1 37:-1 38:1 41:1 42:1 45:1 46:1 
64 1:1 2:1 5:1 6:1 7:1 8:-1 11:1 14:1 15:-1 16:1 17:1 18:1 19:1 21:1 24:1 26:1 29:1 30:1 32:1 33:1 34:1 35:1 36:-1 37:-1 39:1 41:-1 42:-1 45:1 46:1 
64 1:1 4:1 5:1 6:1 7:1 8:-1 11:1 13:1 15:-1 16:1 17:1 18:1 19:1 21:1 24:1 26:1 29:1 30:1 32:1 33:1 34:1 35:1 36:1 37:1 40:1 41:-1 42:1 43:1 46:1 
64 1:1 4:1 5:1 6:1 7:1 8:-1 10:1 12:1 15:-1 16:-1 17:1 18:1 19:1 21:1 24:1 26:1 29:-1 30:1 32:-1 33:1 34:-1 35:1 36:1 37:1 40:1 41:-1 42:1 44:1 46:1 
64 1:1 3:1 5:1 6:-1 7:1 8:-1 9:1 14:1 15:1 16:1 17:1 18:-1 19:-1 21:1 23:1 27:1 29:-1 30:-1 31:1 32:1 33:1 34:1 35:1 36:-1 37:1 38:1 41:-1 42:1 44:1 46:1 
64 1:-1 2:1 5:1 6:1 7:1 8:-1 10:1 12:1 15:1 16:1 17:1 18:1 19:-1 21:1 23:1 26:1 29:1 30:1 32:1 33:1 34:1 35:1 36:-1 37:1 40:1 41:-1 42:1 45:1 46:1 
64 1:-1 4:1 5:1 6:1 7:1 8:-1 11:1 14:1 15:-1 16:-1 17:1 18:1 19:1 21:1 24:1 26:1 29:1 30:1 31:1 32:-1 33:1 34:-1 35:-1 36:1 37:1 39:1 41:1 42:1 44:1 46:1 
64 1:-1 2:1 5:1 6:1 7:1 8:-1 9:1 12:1 15:1 16:1 17:1 18:1 19:-1 21:1 24:1 26:1 29:1 30:1 32:1 33:1 34:1 35:1 36:-1 37:1 40:1 41:1 42:1 45:1 46:1 
64 1:1 2:1 5:1 6:1 7:1 8:-1 9:1 12:1 15:-1 16:-1 17:-1 18:1 19:1 21:1 23:1 26:1 29:-1 30:1 32:1 33:1 34:-1 35:1 36:1 37:1 40:1 41:-1 42:1 44:1 46:1 
64 1:1 2:1 5:1 6:1 7:1 8:-1 9:1 14:1 15:-1 16:1 17:1 18:1 19:1 21:1 25:1 26:1 29:1 30:1 32:1 33:1 34:1 35:1 36:-1 37:1 39:1 41:-1 42:1 44:1 46:1 
64 1:-1 2:1 5:1 6:1 7:1 8:-1 10:1 14:1 15:-1 16:1 17:1 18:1 19:-1 22:1 23:1 28:1 29:1 30:-1 32:1 33:1 34:1 35:1 36:-1 37:1 39:1 41:-1 42:-1 45:1 46:1 
64 1:1 2:1 5:1 6:1 7:1 8:-1 9:1 14:1 15:-1 16:1 17:1 18:1 19:1 21:1 23:1 26:1 29:1 30:1 32:1 33:1 34:1 35:1 36:-1 37:1 39:1 41:-1 42:1 44:1 46:1 
64 1:-1 2:1 5:1 6:1 7:1 8:-1 11:1 14:1 15:1 16:1 17:1 18:1 19:-1 21:1 24:1 27:1 29:1 30:1 32:1 33:1 34:1 35:1 36:1 37:1 39:1 41:-1 42:-1 45:1 46:1 
64 1:-1 2:1 5:1 6:1 7:1 8:-1 9:1 14:1 15:-1 16:1 17:1 18:1 19:1 21:1 24:1 26:1 29:1 30:1 31:1 32:1 33:1 34:1 35:1 36:-1 37:1 39:1 41:1 42:1 45:1 46:1 
64 1:1 2:1 5:1 6:1 7:1 8:-1 10:1 12:1 15:-1 16:1 17:1 18:1 19:1 21:1 23:1 26:1 29:1 30:1 32:1 33:1 34:1 35:1 36:1 37:1 38:1 41:-1 42:1 44:1 46:1 
64 1:1 2:1 5:1 6:1 7:1 8:-1 11:1 14:1 15:-1 16:1 17:1 18:1 19:1 21:1 24:1 26:1 29:1 30:1 32:1 33:1 34:1 35:1 36:-1 37:-1 39:1 41:-1 42:-1 45:1 46:1 
64 1:1 2:1 5:1 6:1 7:1 8:-1 11:1 14:1 15:-1 16:1 17:1 18:1 19:1 21:1 23:1 26:1 29:1 30:1 32:1 33:1 34:1 35:1 36:1 37:1 39:1 41:-1 42:1 44:1 46:1 
32.98085682514127 1:-1 2:1 5:1 6:1 7:1 8:-1 11:1 14:1 15:1 16:1 17:1 18:1 19:-1 21:1 24:1 26:1 29:1 30:1 32:1 33:1 34:1 35:1 36:1 37:1 39:1 41:-1 42:1 45:1 46:1 
64 1:1 2:1 5:1 6:1 7:1 8:-1 10:1 12:1 15:-1 16:1 17:1 18:1 19:1 22:1 24:1 26:1 29:1 30:1 32:1 33:1 34:1 35:1 36:1 37:-1 40:1 41:1 42:1 44:1 46:1 
64 1:-1 2:1 5:-1 6:1 7:-1 8:-1 11:1 12:1 15:-1 16:1 17:1 18:-1 19:1 22:1 24:1 26:1 29:1 30:-1 31:1 32:1 33:1 34:1 35:1 36:1 37:-1 39:1 41:-1 42:1 45:1 46:1 
64 1:1 2:1 5:1 6:1 7:1 8:-1 9:1 12:1 15:-1 16:1 17:1 18:1 19:1 22:1 24:1 26:1 29:1 30:1 32:1 33:1 34:1 35:1 36:-1 37:1 40:1 41:-1 42:1 44:1 46:1 
64 1:1 2:1 5:1 6:1 7:1 8:-1 9:1 14:1 15:-1 16:1 17:1 18:1 19:1 21:1 24:1 26:1 29:1 30:1 32:1 33:1 34:1 35:1 36:-1 37:1 39:1 41:-1 42:1 44:1 46:1 
64 1:-1 2:1 5:1 6:1 7:1 8:-1 10:1 14:1 15:-1 16:-1 17:1 18:1 19:1 21:1 25:1 26:1 29:1 30:1 32:1 33:1 34:-1 35:1 36:1 37:1 38:1 41:-1 42:1 44:1 46:1 
64 1:-1 2:1 5:1 6:1 7:1 8:-1 11:1 12:1 15:-1 16:1 17:1 18:1 19:1 22:1 24:1 28:1 29:1 30:1 32:1 33:1 34:1 35:1 36:1 37:1 39:1 41:-1 42:1 44:1 46:1 
64 1:1 2:1 5:1 6:1 7:1 8:-1 9:1 12:1 15:1 16:1 17:1 18:1 19:-1 21:1 23:1 26:1 29:1 30:1 32:1 33:1 34:1 35:1 36:1 37:-1 40:1 41:-1 42:1 45:1 46:1 
64 1:1 4:1 5:1 6:1 7:1 8:-1 10:1 12:1 15:-1 16:1 17:1 18:1 19:1 21:1 24:1 26:1 29:1 30:1 32:1 33:1 34:1 35:1 36:1 37:1 40:1 41:1 42:1 44:1 46:1 
64 1:-1 2:1 5:1 6:1 7:1 8:-1 9:1 12:1 15:-1 16:1 17:1 18:1 19:1 21:1 25:1 26:1 29:1 30:1 32:1 33:1 34:1 35:1 36:1 37:1 40:1 41:-1 42:1 45:1 46:1 
64 1:1 2:1 5:1 6:1 7:1 8:-1 9:1 14:1 15:1 16:1 17:1 18:1 19:-1 21:1 24:1 26:1 29:1 30:1 32:1 33:1 34:1 35:1 36:1 37:1 40:1 41:-1 42:-1 44:1 46:1 
64 1:1 2:1 5:1 6:1 7:1 8:-1 9:1 14:1 15:-1 16:1 17:1 18:1 19:1 21:1 23:1 26:1 29:1 30:1 32:1 33:1 34:1 35:1 36:-1 37:1 40:1 41:-1 42:1 44:1 46:1 
64 1:1 2:1 5:1 6:1 7:1 8:-1 10:1 14:1 15:1 16:1 17:1 18:1 19:-1 21:1 23:1 26:1 29:1 30:1 32:1 33:1 34:1 35:1 36:1 37:1 38:1 41:-1 42:1 44:1 46:1 
64 1:1 2:1 5:1 6:1 7:1 8:-1 11:1 13:1 15:-1 16:1 17:1 18:1 19:1 21:1 23:1 26:1 29:1 30:1 32:1 33:1 34:1 35:1 36:1 37:1 40:1 41:-1 42:1 44:1 46:1 
64 1:-1 3:1 5:-1 6:-1 7:1 8:-1 11:1 14:1 15:-1 16:1 17:1 18:1 19:1 21:1 24:1 26:1 29:-1 30:-1 32:-1 33:1 34:-1 35:1 36:-1 37:1 39:1 41:-1 42:-1 43:1 46:1 
64 1:-1 2:1 5:1 6:1 7:1 8:-1 11:1 14:1 15:-1 16:1 17:1 18:1 19:1 21:1 23:1 26:1 29:1 30:1 32:1 33:1 34:1 35:1 36:-1 37:1 39:1 41:-1 42:1 43:1 46:1 
64 1:1 2:1 5:1 6:1 7:1 8:-1 9:1 12:1 15:-1 16:1 17:1 18:1 19:1 22:1 24:1 26:1 29:1 30:1 32:1 33:1 34:1 35:1 36:-1 37:1 40:1 41:-1 42:1 44:1 46:1 
64 1:-1 4:1 5:1 6:1 7:1 8:-1 11:1 14:1 15:1 16:-1 17:1 18:1 19:-1 21:1 24:1 26:1 29:1 30:1 32:-1 33:1 34:-1 35:1 36:1 37:1 40:1 41:1 42:-1 44:1 46:1 
64 1:-1 2:1 5:1 6:-1 7:1 8:-1 10:1 14:1 15:-1 16:-1 17:-1 18:1 19:1 21:1 23:1 26:1 29:-1 30:1 32:-1 33:1 34:-1 35:1 36:-1 37:1 40:1 41:-1 42:1 44:1 46:1 
64 1:-1 2:1 5:1 6:1 7:1 8:-1 11:1 14:1 15:1 16:1 17:1 18:1 19:-1 21:1 23:1 26:1 29:1 30:1 32:1 33:1 34:1 35:1 36:1 37:1 38:1 41:-1 42:1 45:1 46:1 
64 1:1 2:1 5:1 6:1 7:1 8:-1 9:1 14:1 15:1 16:1 17:1 18:1 19:1 21:1 23:1 26:1 29:1 30:1 32:1 33:1 34:1 35:1 36:-1 37:-1 40:1 41:-1 42:1 45:1 46:1 
64 1:-1 2:1 5:-1 6:-1 7:-1 8:-1 11:1 12:1 15:-1 16:1 17:1 18:-1 19:1 21:1 24:1 27:1 29:1 30:-1 32:1 33:1 34:1 35:1 36:1 37:-1 39:1 41:-1 42:-1 45:1 46:1 
64 1:1 2:1 5:1 6:1 7:1 8:-1 10:1 12:1 15:-1 16:1 17:1 18:1 19:-1 22:1 25:1 26:1 29:1 30:1 32:1 33:1 34:1 35:1 36:-1 37:-1 38:1 41:-1 42:1 45:1 46:1 
64 1:1 2:1 5:1 6:1 7:1 8:-1 9:1 14:1 15:-1 16:1 17:1 18:1 19:1 21:1 24:1 26:1 29:1 30:1 32:1 33:1 34:1 35:1 36:-1 37:1 39:1 41:-1 42:1 44:1 46:1 
64 1:1 2:1 5:1 6:1 7:1 8:-1 11:1 12:1 15:-1 16:-1 17:-1 18:1 19:1 21:1 23:1 27:1 29:-1 30:1 32:1 33:1 34:-1 35:1 36:1 37:1 38:1 41:-1 42:1 44:1 46:1 
64 1:1 2:1 5:1 6:1 7:1 8:-1 11:1 12:1 15:1 16:1 17:1 18:1 19:1 21:1 23:1 26:1 29:1 30:1 32:1 33:1 34:1 35:1 36:1 37:1 40:1 41:-1 42:1 44:1 46:1 
64 1:1 2:1 5:1 6:1 7:1 8:-1 10:1 12:1 15:1 16:1 17:1 18:1 19:1 21:1 24:1 26:1 29:1 30:1 32:1 33:1 34:1 35:1 36:1 37:1 40:1 41:1 42:1 45:1 46:1 
64 1:1 2:1 5:1 6:1 7:1 8:-1 9:1 14:1 15:-1 16:1 17:1 18:1 19:-1 21:1 23:1 26:1 29:-1 30:1 32:1 33:1 34:1 35:1 36:1 37:1 38:1 41:-1 42:1 44:1 46:1 
64 1:1 2:1 5:1 6:1 7:1 8:-1 11:1 14:1 15:1 16:1 17:1 18:1 19:-1 22:1 23:1 26:1 29:1 30:1 32:1 33:1 34:1 35:1 36:1 37:-1 39:1 41:1 42:1 44:1 46:1 
64 1:1 2:1 5:1 6:1 7:1 8:-1 10:1 14:1 15:-1 16:1 17:1 18:1 19:-1 21:1 23:1 26:1 29:1 30:1 32:1 33:1 34:1 35:1 36:-1 37:1 39:1 41:-1 42:-1 44:1 46:1 
64 1:1 2:1 5:1 6:1 7:1 8:-1 9:1 14:1 15:-1 16:1 17:1 18:1 19:-1 21:1 23:1 26:1 29:1 30:1 32:1 33:1 34:1 35:1 36:1 37:-1 40:1 41:-1 42:1 44:1 46:1 
64 1:1 2:1 5:1 6:1 7:1 8:-1 9:1 14:1 15:-1 16:1 17:1 18:1 19:1 22:1 23:1 26:1 29:1 30:1 32:1 33:1 34:1 35:1 36:-1 37:1 39:1 41:-1 42:1 44:1 46:1 
64 1:-1 2:1 5:1 6:-1 7:1 8:-1 9:1 14:1 15:-1 16:1 17:1 18:1 19:-1 21:1 24:1 26:1 29:1 30:1 32:1 33:1 34:1 35:1 36:-1 37:-1 38:1 41:-1 42:1 44:1 46:1 
64 1:1 2:1 5:1 6:1 7:1 8:-1 11:1 14:1 15:-1 16:1 17:1 18:1 19:1 21:1 23:1 26:1 29:1 30:1 32:1 33:1 34:1 35:1 36:1 37:-1 39:1 41:-1 42:1 45:1 46:1 
64 1:1 2:1 5:1 6:1 7:1 8:-1 11:1 12:1 15:1 16:1 17:1 18:1 19:-1 21:1 24:1 26:1 29:1 30:1 32:1 33:1 34:1 35:1 36:1 37:1 38:1 41:-1 42:1 44:1 46:1 
64 1:1 2:1 5:1 6:1 7:1 8:-1 11:1 12:1 15:-1 16:1 17:1 18:1 19:1 21:1 24:1 26:1 29:1 30:1 32:1 33:1 34:1 35:1 36:1 37:1 39:1 41:-1 42:1 44:1 46:1 
64 1:1 2:1 5:1 6:1 7:1 8:-1 9:1 14:1 15:1 16:1 17:1 18:1 19:1 21:1 23:1 26:1 29:1 30:1 32:1 33:1 34:1 35:1 36:1 37:-1 40:1 41:-1 42:1 45:1 46:1 
64 1:1 2:1 5:1 6:1 7:1 8:-1 9:1 12:1 15:1 16:1 17:1 18:1 19:-1 21:1 23:1 26:1 29:1 30:1 32:1 33:1 34:1 35:1 36:1 37:1 40:1 41:-1 42:1 44:1 46:1 
64 1:1 2:1 5:1 6:1 7:1 8:-1 11:1 14:1 15:1 16:1 17:1 18:1 19:-1 21:1 23:1 26:1 29:1 30:1 32:1 33:1 34:1 35:1 36:1 37:1 40:1 41:1 42:-1 44:1 46:1 
64 1:1 2:1 5:1 6:1 7:1 8:-1 10:1 12:1 15:1 16:1 17:1 18:1 19:-1 21:1 25:1 26:1 29:1 30:1 32:1 33:1 34:1 35:1 36:-1 37:1 40:1 41:-1 42:1 44:1 46:1 
64 1:1 2:1 5:1 6:1 7:1 8:-1 11:1 13:1 15:-1 16:1 17:1 18:1 19:1 21:1 23:1 26:1 29:1 30:1 32:1 33:1 34:1 35:1 36:-1 37:1 40:1 41:1 42:1 44:1 46:1 
64 1:1 2:1 5:1 6:-1 7:1 8:-1 10:1 14:1 15:-1 16:-1 17:-1 18:1 19:1 21:1 23:1 26:1 29:-1 30:1 32:-1 33:-1 34:-1 35:-1 36:-1 37:1 40:1 41:-1 42:1 44:1 46:1 
64 1:-1 2:1 5:1 6:-1 7:1 8:-1 10:1 12:1 15:-1 16:1 17:1 18:1 19:-1 21:1 23:1 27:1 29:1 30:1 32:1 33:1 34:1 35:1 36:-1 37:1 40:1 41:1 42:1 45:1 46:1 
64 1:1 2:1 5:1 6:1 7:1 8:-1 9:1 14:1 15:-1 16:1 17:1 18:1 19:1 21:1 23:1 26:1 29:1 30:1 32:1 33:1 34:1 35:1 36:1 37:1 39:1 41:-1 42:1 45:1 46:1 
64 1:1 2:1 5:1 6:1 7:1 8:-1 10:1 14:1 15:1 16:1 17:1 18:1 19:-1 21:1 23:1 26:1 29:1 30:1 32:1 33:1 34:1 35:1 36:-1 37:-1 40:1 41:1 42:1 45:1 46:1 
64 1:1 2:1 5:1 6:1 7:1 8:-1 10:1 12:1 15:-1 16:1 17:1 18:1 19:1 22:1 24:1 26:1 29:1 30:1 32:1 33:1 34:1 35:1 36:1 37:-1 40:1 41:-1 42:1 44:1 46:1 
64 1:1 2:1 5:1 6:1 7:1 8:-1 9:1 14:1 15:1 16:1 17:1 18:1 19:-1 22:1 25:1 26:1 29:1 30:1 32:1 33:1 34:1 35:1 36:1 37:-1 40:1 41:1 42:-1 44:1 46:1 
64 1:1 2:1 5:1 6:1 7:1 8:-1 10:1 12:1 15:1 16:1 17:1 18:1 19:-1 21:1 23:1 26:1 29:1 30:1 32:1 33:1 34:1 35:1 36:1 37:-1 40:1 41:-1 42:1 45:1 46:1 
64 1:-1 4:1 5:1 6:1 7:1 8:-1 11:1 14:1 15:-1 16:1 17:1 18:1 19:1 21:1 23:1 26:1 29:1 30:1 32:1 33:1 34:1 35:1 36:-1 37:1 39:1 41:1 42:1 45:1 46:1 
64 1:1 2:1 5:1 6:1 7:1 8:-1 9:1 14:1 15:-1 16:1 17:1 18:1 19:1 21:1 25:1 26:1 29:1 30:1 32:1 33:1 34:1 35:1 36:-1 37:1 39:1 41:-1 42:1 44:1 46:1 
64 1:-1 2:1 5:1 6:1 7:1 8:-1 9:1 14:1 15:-1 16:1 17:1 18:1 19:1 21:1 24:1 26:1 29:1 30:1 32:1 33:1 34:1 35:1 36:-1 37:1 40:1 41:-1 42:1 44:1 46:1 
64 1:1 2:1 5:1 6:1 7:1 8:-1 9:1 14:1 15:1 16:1 17:1 18:1 19:-1 21:1 24:1 26:1 29:1 30:1 32:1 33:1 34:1 35:1 36:-1 37:-1 38:1 41:-1 42:1 44:1 46:1 
64 1:1 2:1 5:1 6:1 7:1 8:-1 11:1 12:1 15:1 16:1 17:1 18:1 19:-1 21:1 23:1 26:1 29:1 30:1 32:1 33:1 34:1 35:1 36:1 37:-1 40:1 41:-1 42:1 45:1 46:1 
64 1:-1 2:1 5:1 6:1 7:1 8:-1 10:1 12:1 15:1 16:1 17:1 18:1 19:1 21:1 24:1 28:1 29:1 30:1 32:1 33:1 34:1 35:1 36:-1 37:1 40:1 41:-1 42:1 45:1 46:1 
64 1:1 2:1 5:1 6:1 7:1 8:-1 9:1 14:1 15:-1 16:-1 17:-1 18:1 19:1 20:1 25:1 26:1 29:-1 30:1 32:-1 33:1 34:-1 35:-1 36:1 37:-1 40:1 41:-1 42:1 45:1 46:-1 
64 1:-1 2:1 5:1 6:1 7:1 8:-1 11:1 14:1 15:-1 16:1 17:1 18:1 19:1 21:1 23:1 26:1 29:1 30:1 32:1 33:1 34:1 35:1 36:1 37:1 40:1 41:-1 42:1 44:1 46:1 
64 1:1 4:1 5:1 6:1 7:1 8:-1 10:1 12:1 15:-1 16:-1 17:1 18:1 19:1 21:1 24:1 28:1 29:-1 30:1 32:-1 33:1 34:-1 35:1 36:-1 37:-1 40:1 41:-1 42:1 44:1 46:1 
64 1:1 2:1 5:1 6:1 7:1 8:-1 11:1 14:1 15:-1 16:1 17:1 18:1 19:1 21:1 23:1 26:1 29:1 30:1 32:1 33:1 34:1 35:1 36:-1 37:1 39:1 41:1 42:1 44:1 46:1 
64 1:1 2:1 5:1 6:1 7:1 8:-1 11:1 14:1 15:-1 16:1 17:1 18:1 19:1 21:1 23:1 26:1 29:1 30:1 32:1 33:1 34:1 35:1 36:1 37:1 39:1 41:-1 42:1 44:1 46:1 
64 1:1 2:1 5:1 6:1 7:1 8:-1 11:1 14:1 15:-1 16:1 17:1 18:1 19:1 21:1 23:1 26:1 29:1 30:1 32:1 33:1 34:1 35:1 36:-1 37:1 39:1 41:-1 42:1 44:1 46:1 
64 1:1 2:1 5:1 6:1 7:1 8:-1 11:1 14:1 15:1 16:1 17:1 18:1 19:1 21:1 23:1 26:1 29:1 30:1 32:1 33:1 34:1 35:1 36:1 37:-1 39:1 41:-1 42:1 45:1 46:1 
64 1:1 2:1 5:1 6:1 7:1 8:-1 10:1 12:1 15:-1 16:1 17:1 18:1 19:1 21:1 24:1 26:1 29:1 30:1 32:1 33:1 34:1 35:1 36:1 37:1 40:1 41:-1 42:1 44:1 46:1 
64 1:1 2:1 5:1 6:1 7:1 8:-1 10:1 12:1 15:1 16:1 17:1 18:-1 19:-1 21:1 23:1 26:1 29:1 30:1 32:1 33:1 34:1 35:1 36:1 37:1 38:1 41:-1 42:1 45:1 46:1 
64 1:1 2:1 5:1 6:1 7:1 8:-1 9:1 14:1 15:-1 16:1 17:1 18:1 19:1 21:1 23:1 26:1 29:1 30:1 32:1 33:1 34:1 35:1 36:-1 37:1 40:1 41:-1 42:1 44:1 46:1 
64 1:1 2:1 5:1 6:1 7:1 8:-1 10:1 12:1 15:-1 16:1 17:1 18:1 19:-1 21:1 24:1 26:1 29:1 30:1 32:1 33:1 34:1 35:1 36:1 37:-1 40:1 41:-1 42:1 45:1 46:1 
64 1:1 2:1 5:1 6:1 7:1 8:-1 9:1 14:1 15:1 16:1 17:1 18:1 19:-1 21:1 24:1 26:1 29:1 30:1 32:1 33:1 34:1 35:1 36:-1 37:1 40:1 41:-1 42:-1 44:1 46:1 
64 1:-1 2:1 5:1 6:1 7:1 8:-1 11:1 14:1 15:1 16:1 17:1 18:1 19:1 21:1 23:1 26:1 29:1 30:1 32:1 33:1 34:1 35:1 36:-1 37:1 39:1 41:1 42:1 45:1 46:1 
64 1:1 2:1 5:1 6:1 7:1 8:-1 10:1 12:1 15:1 16:1 17:1 18:1 19:-1 21:1 23:1 26:1 29:1 30:1 32:1 33:1 34:1 35:1 36:-1 37:-1 40:1 41:-1 42:1 45:1 46:1 
64 1:1 2:1 5:1 6:1 7:1 8:-1 10:1 14:1 15:1 16:1 17:1 18:1 19:-1 21:1 23:1 26:1 29:1 30:1 32:1 33:1 34:1 35:1 36:1 37:1 38:1 41:-1 42:1 44:1 46:1 
64 1:1 2:1 5:1 6:1 7:1 8:-1 10:1 14:1 15:1 16:1 17:1 18:1 19:-1 21:1 23:1 26:1 29:1 30:1 32:1 33:1 34:1 35:1 36:1 37:-1 40:1 41:-1 42:1 45:1 46:1 
64 1:-1 2:1 5:1 6:1 7:1 8:-1 11:1 12:1 15:1 16:1 17:1 18:1 19:-1 21:1 24:1 26:1 29:1 30:1 32:1 33:1 34:1 35:1 36:1 37:1 38:1 41:-1 42:1 45:1 46:1 
64 1:-1 2:1 5:1 6:1 7:1 8:-1 10:1 12:1 15:1 16:1 17:1 18:1 19:-1 21:1 23:1 26:1 29:1 30:1 32:1 33:1 34:1 35:1 36:-1 37:1 40:1 41:1 42:1 45:1 46:1 
64 1:-1 2:1 5:1 6:-1 7:1 8:-1 9:1 14:1 15:-1 16:-1 17:-1 18:1 19:1 21:1 23:1 26:1 29:-1 30:1 32:-1 33:1 34:-1 35:1 36:-1 37:1 39:1 41:1 42:1 44:1 46:1 
64 1:1 2:1 5:1 6:1 7:1 8:-1 9:1 12:1 15:1 16:1 17:1 18:1 19:1 21:1 24:1 26:1 29:1 30:1 32:1 33:1 34:1 35:1 36:-1 37:-1 40:1 41:-1 42:-1 45:1 46:1 
64 1:-1 2:1 5:-1 6:1 7:-1 8:-1 10:1 12:1 15:-1 16:1 17:1 18:-1 19:1 21:1 24:1 26:1 29:1 30:-1 32:1 33:1 34:1 35:1 36:1 37:-1 40:1 41:-1 42:-1 45:1 46:-1 
64 1:1 4:1 5:1 6:1 7:1 8:-1 10:1 14:1 15:-1 16:1 17:1 18:1 19:1 21:1 23:1 26:1 29:-1 30:1 32:1 33:1 34:1 35:1 36:1 37:1 40:1 41:1 42:-1 44:1 46:1 
64 1:-1 2:1 5:1 6:-1 7:1 8:-1 11:1 14:1 15:-1 16:-1 17:-1 18:1 19:1 20:1 25:1 26:1 29:-1 30:1 32:-1 33:1 34:-1 35:-1 36:1 37:1 38:1 41:-1 42:1 45:1 46:1 
64 1:1 4:1 5:1 6:1 7:1 8:-1 10:1 12:1 15:-1 16:-1 17:1 18:1 19:1 21:1 24:1 28:1 29:-1 30:1 32:-1 33:1 34:-1 35:1 36:-1 37:-1 40:1 41:-1 42:1 44:1 46:1 
64 1:-1 2:1 5:1 6:1 7:1 8:-1 11:1 12:1 15:1 16:1 17:1 18:1 19:1 21:1 24:1 28:1 29:1 30:1 32:1 33:1 34:1 35:1 36:1 37:1 39:1 41:-1 42:1 45:1 46:1 
37.68820735634859 1:-1 2:1 5:-1 6:1 7:-1 8:-1 11:1 14:1 15:-1 16:1 17:1 18:-1 19:-1 21:1 23:1 26:1 29:1 30:-1 31:1 32:1 33:1 34:1 35:1 36:1 37:-1 40:1 41:1 42:-1 45:1 46:1 
64 1:1 2:1 5:1 6:1 7:1 8:-1 10:1 12:1 15:-1 16:1 17:1 18:1 19:1 21:1 24:1 26:1 29:1 30:1 32:1 33:1 34:1 35:1 36:-1 37:1 40:1 41:-1 42:1 44:1 46:1 
64 1:-1 2:1 5:-1 6:1 7:-1 8:-1 9:1 14:1 15:-1 16:1 17:1 18:-1 19:1 21:1 23:1 26:1 29:1 30:-1 31:1 32:1 33:1 34:1 35:1 36:1 37:-1 40:1 41:-1 42:1 45:1 46:-1 
64 1:1 2:1 5:1 6:1 7:1 8:-1 9:1 14:1 15:-1 16:1 17:1 18:1 19:1 21:1 25:1 26:1 29:1 30:1 32:1 33:1 34:1 35:1 36:-1 37:1 39:1 41:-1 42:1 44:1 46:1 
64 1:-1 2:1 5:1 6:1 7:1 8:-1 10:1 14:1 15:1 16:-1 17:1 18:1 19:1 21:1 23:1 26:1 29:1 30:1 32:1 33:-1 34:-1 35:-1 36:-1 37:1 39:1 41:-1 42:1 45:1 46:1 
64 1:-1 2:1 5:1 6:1 7:1 8:-1 11:1 14:1 15:-1 16:1 17:1 18:1 19:1 21:1 23:1 26:1 29:1 30:1 32:1 33:1 34:1 35:1 36:-1 37:1 40:1 41:1 42:1 44:1 46:1 
64 1:1 2:1 5:1 6:1 7:1 8:-1 9:1 14:1 15:-1 16:1 17:1 18:1 19:-1 21:1 23:1 26:1 29:1 30:1 32:1 33:1 34:1 35:1 36:1 37:-1 40:1 41:-1 42:1 44:1 46:1 
64 1:1 2:1 5:1 6:1 7:1 8:-1 9:1 14:1 15:-1 16:1 17:1 18:1 19:1 21:1 24:1 26:1 29:1 30:1 32:1 33:1 34:1 35:1 36:1 37:1 39:1 41:-1 42:1 44:1 46:1 
64 1:1 4:1 5:1 6:1 7:1 8:-1 9:1 14:1 15:1 16:1 17:1 18:-1 19:-1 21:1 23:1 26:1 29:-1 30:-1 32:1 33:1 34:1 35:1 36:1 37:-1 38:1 41:1 42:1 43:1 46:-1 
64 1:1 2:1 5:1 6:-1 7:1 8:-1 10:1 14:1 15:-1 16:-1 17:-1 18:1 19:1 21:1 23:1 26:1 29:-1 30:1 32:-1 33:1 34:-1 35:1 36:-1 37:1 39:1 41:1 42:1 44:1 46:1 
64 1:1 3:1 5:1 6:1 7:1 8:-1 9:1 14:1 15:-1 16:1 17:1 18:1 19:1 21:1 25:1 26:1 29:-1 30:-1 32:1 33:1 34:1 35:1 36:1 37:-1 40:1 41:-1 42:-1 44:1 46:-1 
64 1:-1 2:1 5:1 6:1 7:1 8:-1 9:1 14:1 15:-1 16:1 17:1 18:1 19:1 21:1 23:1 26:1 29:1 30:1 32:1 33:1 34:1 35:1 36:-1 37:1 40:1 41:-1 42:1 43:1 46:1 
64 1:-1 2:1 5:1 6:1 7:1 8:-1 10:1 14:1 15:-1 16:1 17:1 18:1 19:1 21:1 25:1 26:1 29:1 30:1 32:-1 33:1 34:1 35:1 36:-1 37:1 40:1 41:1 42:1 44:1 46:1 
0.8534769032089078 1:1 2:1 5:1 6:1 7:1 8:-1 11:1 12:1 15:-1 16:1 17:1 18:1 19:1 21:1 24:1 26:1 29:1 30:1 32:1 33:1 34:-1 35:1 36:1 37:1 39:1 41:-1 42:1 45:1 46:1 
64 1:1 2:1 5:1 6:1 7:1 8:-1 9:1 12:1 15:-1 16:-1 17:-1 18:1 19:1 21:1 25:1 26:1 29:-1 30:1 32:-1 33:1 34:-1 35:-1 36:1 37:1 39:1 41:-1 42:1 45:1 46:-1 
20.39997476787023 1:1 2:1 5:1 6:1 7:1 8:-1 11:1 12:1 15:-1 16:1 17:1 18:1 19:1 21:1 24:1 26:1 29:1 30:1 32:1 33:1 34:-1 35:1 36:-1 37:1 39:1 41:1 42:1 45:1 46:1 
64 1:1 2:1 5:1 6:1 7:1 8:-1 10:1 14:1 15:-1 16:1 17:1 18:1 19:-1 21:1 23:1 26:1 29:1 30:1 32:1 33:1 34:1 35:1 36:1 37:1 39:1 41:-1 42:-1 44:1 46:1 
64 1:1 2:1 5:1 6:1 7:1 8:-1 9:1 14:1 15:-1 16:1 17:1 18:1 19:1 22:1 23:1 26:1 29:1 30:1 32:1 33:1 34:1 35:1 36:-1 37:1 39:1 41:-1 42:1 44:1 46:1 
64 1:-1 2:1 5:-1 6:1 7:-1 8:-1 10:1 14:1 15:1 16:1 17:1 18:-1 19:-1 21:1 24:1 26:1 29:1 30:-1 31:1 32:1 33:1 34:1 35:1 36:-1 37:-1 40:1 41:1 42:-1 45:1 46:1 
64 1:-1 2:1 5:1 6:-1 7:1 8:-1 10:1 14:1 15:-1 16:-1 17:1 18:1 19:1 21:1 24:1 26:1 29:-1 30:-1 32:-1 33:1 34:-1 35:1 36:1 37:1 39:1 41:-1 42:1 43:1 46:1 
64 1:1 2:1 5:1 6:1 7:1 8:-1 11:1 14:1 15:-1 16:-1 17:-1 18:1 19:1 21:1 23:1 26:1 29:-1 30:1 32:-1 33:1 34:-1 35:1 36:-1 37:-1 39:1 41:-1 42:1 44:1 46:-1 
64 1:-1 2:1 5:-1 6:-1 7:-1 8:-1 10:1 14:1 15:-1 16:1 17:1 18:-1 19:1 21:1 23:1 26:1 29:1 30:-1 32:1 33:1 34:1 35:1 36:-1 37:-1 40:1 41:-1 42:-1 45:1 46:1 
0.2252546490151905 1:1 3:1 5:-1 6:1 7:1 8:-1 9:1 14:1 15:-1 16:1 17:1 18:1 19:1 21:1 25:1 26:1 29:-1 30:-1 32:1 33:1 34:1 35:1 36:1 37:-1 40:1 41:-1 42:-1 44:1 46:-1 
64 1:1 2:1 5:1 6:1 7:1 8:-1 11:1 12:1 15:1 16:1 17:1 18:1 19:-1 21:1 25:1 27:1 29:1 30:1 32:1 33:1 34:1 35:1 36:-1 37:1 39:1 41:-1 42:1 44:1 46:1 
64 1:-1 2:1 5:-1 6:1 7:-1 8:-1 10:1 12:1 15:-1 16:1 17:1 18:-1 19:1 21:1 24:1 26:1 29:1 30:-1 32:1 33:1 34:1 35:1 36:1 37:-1 40:1 41:-1 42:-1 45:1 46:-1 
64 1:1 2:1 5:1 6:1 7:1 8:-1 10:1 14:1 15:-1 16:1 17:1 18:1 19:-1 21:1 23:1 26:1 29:1 30:1 32:1 33:1 34:1 35:1 36:-1 37:1 40:1 41:1 42:1 44:1 46:1 
64 1:1 2:1 5:1 6:1 7:1 8:-1 10:1 12:1 15:-1 16:1 17:1 18:1 19:1 21:1 25:1 26:1 29:1 30:1 32:1 33:1 34:1 35:1 36:-1 37:1 40:1 41:-1 42:1 44:1 46:1 
64 1:1 2:1 5:1 6:1 7:1 8:-1 10:1 14:1 15:1 16:1 17:1 18:1 19:-1 21:1 23:1 26:1 29:1 30:1 32:1 33:1 34:1 35:1 36:-1 37:1 38:1 41:-1 42:1 44:1 46:1 
64 1:-1 2:1 5:1 6:1 7:1 8:-1 10:1 14:1 15:-1 16:1 17:1 18:1 19:1 21:1 23:1 26:1 29:1 30:1 32:1 33:1 34:1 35:1 36:1 37:1 38:1 41:-1 42:-1 45:1 46:1 
64 1:1 4:1 5:1 6:1 7:1 8:-1 10:1 12:1 15:-1 16:1 17:1 18:1 19:1 21:1 24:1 28:1 29:1 30:1 32:1 33:1 34:1 35:1 36:-1 37:-1 40:1 41:-1 42:1 44:1 46:-1 
64 1:1 4:1 5:1 6:-1 7:1 8:-1 11:1 13:1 15:-1 16:1 17:1 18:1 19:1 21:1 24:1 26:1 29:1 30:1 32:1 33:1 34:1 35:1 36:-1 37:1 40:1 41:1 42:1 43:1 46:1 
64 1:-1 2:1 5:1 6:1 7:1 8:-1 11:1 14:1 15:1 16:1 17:1 18:1 19:-1 21:1 23:1 26:1 29:1 30:1 32:1 33:1 34:1 35:1 36:1 37:1 38:1 41:-1 42:1 45:1 46:1 
64 1:1 4:1 5:1 6:1 7:1 8:-1 10:1 12:1 15:-1 16:1 17:1 18:1 19:1 21:1 25:1 28:1 29:1 30:1 32:1 33:1 34:1 35:1 36:1 37:1 40:1 41:-1 42:1 44:1 46:1 
64 1:1 2:1 5:1 6:1 7:1 8:-1 11:1 12:1 15:1 16:1 17:1 18:1 19:-1 21:1 24:1 26:1 29:1 30:1 32:1 33:1 34:1 35:1 36:-1 37:1 38:1 41:-1 42:1 44:1 46:1 
22.7489639809965 1:1 4:1 5:1 6:1 7:1 8:-1 10:1 12:1 15:-1 16:1 17:1 18:1 19:1 21:1 24:1 28:1 29:1 30:1 32:1 33:1 34:1 35:1 36:-1 37:1 40:1 41:-1 42:1 44:1 46:1 
64 1:1 2:1 5:1 6:1 7:1 8:-1 10:1 12:1 15:1 16:1 17:1 18:1 19:-1 21:1 24:1 26:1 29:1 30:1 32:1 33:1 34:1 35:1 36:-1 37:1 40:1 41:-1 42:1 44:1 46:1 
64 1:1 2:1 5:1 6:1 7:1 8:-1 10:1 12:1 15:-1 16:1 17:1 18:1 19:1 21:1 25:1 26:1 29:1 30:1 32:1 33:1 34:1 35:1 36:-1 37:1 40:1 41:-1 42:1 44:1 46:1 
64 1:1 2:1 5:1 6:1 7:1 8:-1 11:1 14:1 15:1 16:1 17:1 18:1 19:-1 22:1 23:1 26:1 29:1 30:1 32:1 33:1 34:1 35:1 36:1 37:-1 39:1 41:1 42:1 44:1 46:1 
64 1:1 2:1 5:1 6:1 7:1 8:-1 10:1 12:1 15:-1 16:1 17:1 18:1 19:1 21:1 24:1 26:1 29:1 30:1 32:1 33:1 34:1 35:1 36:1 37:1 40:1 41:-1 42:1 44:1 46:1 
64 1:1 2:1 5:1 6:1 7:1 8:-1 9:1 14:1 15:-1 16:1 17:1 18:1 19:1 21:1 24:1 26:1 29:1 30:1 32:1 33:1 34:1 35:1 36:1 37:-1 39:1 41:-1 42:1 45:1 46:1 
64 1:1 2:1 5:1 6:1 7:1 8:-1 9:1 12:1 15:-1 16:-1 17:-1 18:1 19:1 21:1 25:1 26:1 29:-1 30:1 32:-1 33:1 34:-1 35:-1 36:1 37:-1 39:1 41:-1 42:1 45:1 46:-1 
58.13015634744939 1:-1 4:1 5:1 6:1 7:1 8:-1 11:1 14:1 15:1 16:-1 17:1 18:1 19:-1 21:1 24:1 26:1 29:1 30:1 31:1 32:-1 33:1 34:-1 35:1 36:1 37:1 40:1 41:1 42:1 44:1 46:1 
23.08057175178235 1:1 2:1 5:1 6:1 7:1 8:-1 10:1 14:1 15:1 16:1 17:1 18:1 19:-1 21:1 23:1 26:1 29:1 30:-1 32:1 33:1 34:1 35:1 36:-1 37:1 40:1 41:-1 42:1 44:1 46:1 
64 1:-1 4:1 5:1 6:1 7:1 8:-1 11:1 14:1 15:-1 16:-1 17:-1 18:1 19:1 21:1 23:1 26:1 29:-1 30:1 32:-1 33:1 34:-1 35:-1 36:-1 37:1 39:1 41:1 42:1 43:1 46:1 
64 1:1 2:1 5:1 6:1 7:1 8:-1 9:1 14:1 15:-1 16:1 17:1 18:1 19:1 21:1 23:1 26:1 29:1 30:1 32:1 33:1 34:1 35:1 36:-1 37:1 40:1 41:-1 42:1 44:1 46:1 
64 1:1 2:1 5:1 6:1 7:1 8:-1 10:1 12:1 15:-1 16:1 17:1 18:1 19:1 21:1 23:1 26:1 29:1 30:1 32:1 33:1 34:1 35:1 36:-1 37:1 39:1 41:-1 42:1 44:1 46:1 
57.92387766722745 1:1 2:1 5:1 6:1 7:1 8:-1 9:1 14:1 15:-1 16:1 17:1 18:-1 19:1 21:1 25:1 26:1 29:1 30:1 32:1 33:1 34:1 35:1 36:-1 37:-1 38:1 41:-1 42:1 44:1 46:1 
64 1:1 4:1 5:1 6:-1 7:1 8:-1 11:1 13:1 15:-1 16:1 17:1 18:1 19:1 21:1 24:1 26:1 29:1 30:1 32:1 33:1 34:1 35:1 36:1 37:1 40:1 41:-1 42:1 43:1 46:1 
64 1:1 4:1 5:1 6:1 7:1 8:-1 10:1 12:1 15:-1 16:1 17:1 18:-1 19:1 21:1 24:1 26:1 29:1 30:1 32:1 33:1 34:1 35:1 36:1 37:1 38:1 41:-1 42:-1 43:1 46:1 
64 1:-1 2:1 5:1 6:1 7:1 8:-1 10:1 14:1 15:-1 16:1 17:1 18:1 19:1 21:1 24:1 26:1 29:1 30:1 32:1 33:1 34:1 35:1 36:-1 37:1 40:1 41:-1 42:1 44:1 46:1 
64 1:1 2:1 5:1 6:1 7:1 8:-1 11:1 14:1 15:-1 16:1 17:1 18:1 19:1 21:1 24:1 26:1 29:1 30:1 32:1 33:1 34:1 35:1 36:1 37:-1 39:1 41:-1 42:1 44:1 46:1 
64 1:1 2:1 5:1 6:1 7:1 8:-1 10:1 14:1 15:-1 16:1 17:1 18:1 19:1 21:1 24:1 26:1 29:1 30:1 32:1 33:1 34:1 35:1 36:1 37:1 39:1 41:-1 42:1 44:1 46:1 
64 1:-1 2:1 5:1 6:-1 7:1 8:-1 11:1 14:1 15:-1 16:-1 17:-1 18:1 19:1 20:1 25:1 26:1 29:-1 30:1 32:-1 33:1 34:-1 35:-1 36:-1 37:1 40:1 41:-1 42:1 45:1 46:1 
64 1:1 2:1 5:1 6:1 7:1 8:-1 10:1 12:1 15:1 16:1 17:1 18:1 19:-1 21:1 23:1 26:1 29:1 30:1 32:1 33:1 34:1 35:1 36:-1 37:-1 40:1 41:-1 42:1 45:1 46:1 
64 1:1 2:1 5:1 6:1 7:1 8:-1 10:1 12:1 15:-1 16:1 17:1 18:1 19:1 21:1 25:1 26:1 29:1 30:1 32:1 33:1 34:1 35:1 36:-1 37:1 40:1 41:-1 42:1 44:1 46:1 
64 1:1 2:1 5:1 6:1 7:1 8:-1 9:1 14:1 15:-1 16:1 17:1 18:1 19:-1 21:1 24:1 26:1 29:1 30:1 32:1 33:1 34:1 35:1 36:-1 37:1 39:1 41:-1 42:1 44:1 46:1 
21.58180799531987 1:-1 2:1 5:-1 6:1 7:-1 8:-1 10:1 14:1 15:-1 16:1 17:1 18:-1 19:1 21:1 23:1 26:1 29:1 30:-1 31:1 32:1 33:1 34:1 35:1 36:-1 37:-1 40:1 41:-1 42:1 45:1 46:-1 
64 1:1 2:1 5:1 6:1 7:1 8:-1 11:1 12:1 15:-1 16:1 17:1 18:1 19:1 21:1 25:1 26:1 29:1 30:1 32:1 33:1 34:1 35:1 36:1 37:-1 38:1 41:-1 42:1 45:1 46:1 
64 1:1 4:1 5:1 6:1 7:1 8:-1 10:1 12:1 15:-1 16:-1 17:-1 18:1 19:1 22:1 23:1 28:1 29:-1 30:1 32:-1 33:1 34:-1 35:-1 36:-1 37:-1 40:1 41:-1 42:1 45:1 46:-1 
64 1:1 2:1 5:1 6:1 7:1 8:-1 11:1 14:1 15:-1 16:1 17:1 18:1 19:1 20:1 24:1 26:1 29:1 30:1 32:1 33:1 34:1 35:1 36:1 37:1 38:1 41:-1 42:1 43:1 46:1 
64 1:1 2:1 5:1 6:1 7:1 8:-1 9:1 14:1 15:1 16:1 17:1 18:1 19:1 21:1 25:1 26:1 29:1 30:1 32:1 33:1 34:1 35:1 36:-1 37:-1 38:1 41:-1 42:-1 45:1 46:1 
64 1:-1 2:1 5:1 6:1 7:1 8:-1 10:1 12:1 15:1 16:1 17:1 18:1 19:-1 21:1 24:1 26:1 29:1 30:1 32:1 33:1 34:1 35:1 36:-1 37:1 40:1 41:-1 42:1 45:1 46:1 
64 1:1 2:1 5:1 6:1 7:1 8:-1 11:1 12:1 15:-1 16:1 17:1 18:1 19:1 22:1 24:1 26:1 29:1 30:1 32:1 33:1 34:1 35:1 36:1 37:1 39:1 41:-1 42:1 44:1 46:1 
64 1:1 4:1 5:1 6:1 7:1 8:-1 10:1 12:1 15:-1 16:1 17:1 18:1 19:1 21:1 25:1 26:1 29:1 30:1 32:1 33:1 34:1 35:1 36:1 37:1 40:1 41:-1 42:1 44:1 46:1 
64 1:1 2:1 5:1 6:-1 7:1 8:-1 9:1 14:1 15:1 16:1 17:1 18:1 19:-1 21:1 24:1 26:1 29:1 30:1 32:1 33:1 34:1 35:1 36:-1 37:1 38:1 41:-1 42:1 44:1 46:1 
64 1:1 2:1 5:1 6:1 7:1 8:-1 11:1 14:1 15:1 16:1 17:1 18:1 19:-1 21:1 24:1 26:1 29:1 30:1 32:1 33:1 34:1 35:1 36:1 37:-1 40:1 41:1 42:-1 44:1 46:1 
64 1:1 2:1 5:1 6:1 7:1 8:-1 9:1 14:1 15:1 16:1 17:1 18:1 19:-1 21:1 23:1 26:1 29:1 30:1 32:1 33:1 34:1 35:1 36:1 37:1 39:1 41:-1 42:1 44:1 46:1 
64 1:-1 2:1 5:1 6:-1 7:1 8:-1 11:1 12:1 15:-1 16:-1 17:-1 18:1 19:1 21:1 25:1 26:1 29:-1 30:1 32:-1 33:1 34:-1 35:-1 36:-1 37:1 39:1 41:-1 42:1 45:1 46:1 
0.4716702515765629 1:1 2:1 5:1 6:1 7:1 8:-1 9:1 14:1 15:-1 16:-1 17:1 18:1 19:1 21:1 25:1 26:1 29:1 30:1 32:1 33:1 34:-1 35:1 36:1 37:1 39:1 41:-1 42:1 44:1 46:1 
64 1:1 2:1 5:1 6:1 7:1 8:-1 10:1 12:1 15:-1 16:-1 17:-1 18:1 19:1 21:1 23:1 27:1 29:-1 30:1 31:1 32:1 33:1 34:-1 35:1 36:-1 37:1 40:1 41:-1 42:1 44:1 46:1 
64 1:1 2:1 5:1 6:1 7:1 8:-1 11:1 14:1 15:1 16:1 17:1 18:1 19:-1 21:1 23:1 26:1 29:1 30:1 32:1 33:1 34:1 35:1 36:1 37:1 39:1 41:-1 42:1 44:1 46:1 
64 1:1 2:1 5:1 6:1 7:1 8:-1 10:1 14:1 15:-1 16:1 17:1 18:1 19:-1 21:1 23:1 26:1 29:1 30:1 32:1 33:1 34:1 35:1 36:1 37:-1 40:1 41:-1 42:1 45:1 46:1 
64 1:1 4:1 5:1 6:-1 7:1 8:-1 9:1 12:1 15:-1 16:1 17:1 18:1 19:1 21:1 25:1 28:1 29:1 30:1 32:1 33:1 34:1 35:1 36:1 37:1 40:1 41:-1 42:1 44:1 46:1 
4.019668012652563 1:1 4:1 5:1 6:1 7:1 8:-1 11:1 14:1 15:-1 16:1 17:1 18:1 19:1 21:1 23:1 28:1 29:-1 30:1 32:1 33:1 34:1 35:1 36:1 37:-1 39:1 41:-1 42:1 44:1 46:1 
64 1:-1 2:1 5:1 6:1 7:1 8:-1 10:1 14:1 15:1 16:1 17:1 18:1 19:1 21:1 23:1 26:1 29:1 30:1 32:1 33:1 34:1 35:1 36:1 37:1 40:1 41:-1 42:1 45:1 46:1 
64 1:1 2:1 5:1 6:1 7:1 8:-1 9:1 12:1 15:-1 16:1 17:1 18:1 19:1 21:1 24:1 26:1 29:1 30:1 32:1 33:1 34:1 35:1 36:-1 37:1 40:1 41:-1 42:1 44:1 46:1 
64 1:1 2:1 5:1 6:1 7:1 8:-1 11:1 14:1 15:1 16:1 17:1 18:1 19:1 21:1 23:1 26:1 29:1 30:1 32:1 33:1 34:1 35:1 36:1 37:-1 39:1 41:-1 42:1 45:1 46:1 
64 1:1 2:1 5:1 6:1 7:1 8:-1 10:1 14:1 15:-1 16:1 17:1 18:1 19:1 21:1 25:1 26:1 29:1 30:1 32:1 33:1 34:1 35:1 36:-1 37:-1 40:1 41:1 42:1 44:1 46:1 
64 1:1 2:1 5:1 6:1 7:1 8:-1 9:1 12:1 15:-1 16:-1 17:-1 18:1 19:1 21:1 23:1 26:1 29:-1 30:1 32:1 33:1 34:-1 35:1 36:1 37:1 40:1 41:-1 42:-1 44:1 46:1 
64 1:1 2:1 5:1 6:1 7:1 8:-1 11:1 14:1 15:-1 16:1 17:1 18:1 19:1 21:1 23:1 26:1 29:1 30:1 32:1 33:1 34:1 35:1 36:1 37:1 39:1 41:-1 42:1 44:1 46:1 
64 1:1 2:1 5:1 6:1 7:1 8:-1 10:1 14:1 15:1 16:1 17:1 18:1 19:-1 22:1 23:1 26:1 29:1 30:-1 32:1 33:1 34:1 35:1 36:-1 37:-1 39:1 41:1 42:-1 45:1 46:1 
64 1:1 2:1 5:1 6:1 7:1 8:-1 9:1 14:1 15:1 16:1 17:1 18:1 19:-1 21:1 23:1 26:1 29:1 30:1 32:1 33:1 34:1 35:1 36:1 37:-1 40:1 41:-1 42:1 45:1 46:1 
64 1:1 2:1 5:1 6:1 7:1 8:-1 11:1 14:1 15:1 16:1 17:1 18:1 19:-1 21:1 23:1 26:1 29:1 30:1 32:1 33:1 34:1 35:1 36:1 37:1 40:1 41:1 42:-1 44:1 46:1 
64 1:1 2:1 5:1 6:1 7:1 8:-1 11:1 14:1 15:1 16:1 17:1 18:1 19:-1 21:1 23:1 26:1 29:1 30:1 32:1 33:1 34:1 35:1 36:1 37:1 39:1 41:-1 42:1 44:1 46:1 
64 1:-1 2:1 5:1 6:1 7:1 8:-1 10:1 12:1 15:1 16:1 17:1 18:1 19:-1 21:1 24:1 26:1 29:1 30:1 32:1 33:1 34:1 35:1 36:-1 37:1 40:1 41:-1 42:1 45:1 46:1 
64 1:1 2:1 5:1 6:1 7:1 8:-1 11:1 12:1 15:-1 16:1 17:1 18:1 19:1 21:1 25:1 26:1 29:1 30:1 32:1 33:1 34:1 35:1 36:-1 37:1 39:1 41:-1 42:1 44:1 46:1 
64 1:1 2:1 5:1 6:1 7:1 8:-1 10:1 14:1 15:-1 16:-1 17:-1 18:1 19:1 21:1 23:1 26:1 29:-1 30:1 32:-1 33:-1 34:-1 35:-1 36:1 37:1 40:1 41:-1 42:1 44:1 46:-1 
64 1:-1 4:1 5:1 6:1 7:1 8:-1 11:1 14:1 15:-1 16:-1 17:-1 18:1 19:1 21:1 23:1 26:1 29:-1 30:1 32:-1 33:1 34:-1 35:-1 36:1 37:1 39:1 41:1 42:1 43:1 46:1 
64 1:1 2:1 5:1 6:1 7:1 8:-1 9:1 14:1 15:1 16:1 17:1 18:1 19:1 21:1 23:1 26:1 29:1 30:1 32:1 33:1 34:1 35:1 36:-1 37:-1 40:1 41:-1 42:1 45:1 46:1 
64 1:1 2:1 5:1 6:1 7:1 8:-1 10:1 12:1 15:-1 16:1 17:1 18:-1 19:-1 22:1 24:1 26:1 29:1 30:1 32:1 33:1 34:1 35:1 36:-1 37:-1 40:1 41:-1 42:1 44:1 46:1 
64 1:1 4:1 5:1 6:1 7:1 8:-1 11:1 13:1 15:-1 16:1 17:1 18:1 19:1 21:1 24:1 26:1 29:1 30:1 32:1 33:1 34:1 35:1 36:1 37:1 40:1 41:-1 42:1 43:1 46:-1 
64 1:1 2:1 5:1 6:1 7:1 8:-1 11:1 12:1 15:1 16:1 17:1 18:1 19:-1 21:1 25:1 27:1 29:1 30:1 32:1 33:1 34:1 35:1 36:-1 37:1 39:1 41:-1 42:1 44:1 46:1 
64 1:1 2:1 5:1 6:1 7:1 8:-1 9:1 12:1 15:1 16:1 17:1 18:1 19:-1 21:1 23:1 26:1 29:1 30:1 32:1 33:1 34:1 35:1 36:1 37:1 40:1 41:-1 42:1 44:1 46:1 
64 1:1 2:1 5:1 6:1 7:1 8:-1 10:1 14:1 15:1 16:1 17:1 18:1 19:-1 21:1 24:1 26:1 29:1 30:1 32:1 33:1 34:1 35:1 36:-1 37:-1 40:1 41:-1 42:-1 45:1 46:1 
64 1:1 4:1 5:1 6:-1 7:1 8:-1 9:1 12:1 15:-1 16:1 17:1 18:1 19:1 21:1 25:1 28:1 29:1 30:1 32:1 33:1 34:1 35:1 36:1 37:1 40:1 41:-1 42:1 44:1 46:1 
64 1:1 4:1 5:1 6:-1 7:1 8:-1 9:1 12:1 15:-1 16:1 17:1 18:1 19:1 21:1 24:1 26:1 29:1 30:1 32:1 33:1 34:1 35:1 36:1 37:1 40:1 41:1 42:1 44:1 46:1 
64 1:1 4:1 5:1 6:1 7:1 8:-1 10:1 12:1 15:-1 16:1 17:1 18:-1 19:1 21:1 24:1 26:1 29:1 30:1 32:1 33:1 34:1 35:1 36:1 37:1 38:1 41:-1 42:1 43:1 46:1 
64 1:1 2:1 5:1 6:1 7:1 8:-1 9:1 14:1 15:-1 16:1 17:1 18:1 19:1 20:1 24:1 26:1 29:1 30:1 32:1 33:1 34:1 35:1 36:1 37:1 40:1 41:-1 42:1 43:1 46:1 
64 1:1 2:1 5:1 6:1 7:1 8:-1 11:1 12:1 15:1 16:1 17:1 18:1 19:-1 21:1 23:1 26:1 29:1 30:1 32:1 33:1 34:1 35:1 36:1 37:-1 40:1 41:-1 42:1 45:1 46:-1 
53.61141931776447 1:1 2:1 5:1 6:1 7:1 8:-1 9:1 14:1 15:1 16:1 17:1 18:1 19:-1 21:1 25:1 26:1 29:1 30:1 32:1 33:1 34:1 35:1 36:-1 37:1 40:1 41:-1 42:1 44:1 46:1 
64 1:-1 2:1 5:1 6:1 7:1 8:-1 9:1 14:1 15:-1 16:1 17:1 18:1 19:1 21:1 24:1 26:1 29:1 30:1 31:1 32:1 33:1 34:1 35:1 36:-1 37:1 39:1 41:1 42:1 45:1 46:1 
64 1:-1 2:1 5:-1 6:1 7:-1 8:-1 11:1 12:1 15:-1 16:1 17:1 18:-1 19:1 22:1 24:1 26:1 29:1 30:-1 31:1 32:1 33:1 34:1 35:1 36:1 37:-1 39:1 41:-1 42:1 45:1 46:1 
64 1:1 2:1 5:1 6:1 7:1 8:-1 10:1 14:1 15:1 16:1 17:1 18:1 19:-1 21:1 23:1 26:1 29:1 30:1 32:1 33:1 34:1 35:1 36:1 37:1 40:1 41:-1 42:1 44:1 46:1 
64 1:1 4:1 5:1 6:-1 7:1 8:-1 11:1 12:1 15:-1 16:1 17:1 18:1 19:1 21:1 24:1 26:1 29:1 30:1 32:1 33:1 34:1 35:1 36:-1 37:1 40:1 41:1 42:1 44:1 46:1 
64 1:1 2:1 5:1 6:1 7:1 8:-1 10:1 14:1 15:-1 16:1 17:1 18:1 19:1 21:1 24:1 26:1 29:1 30:1 32:1 33:1 34:1 35:1 36:-1 37:1 39:1 41:-1 42:1 44:1 46:1 
64 1:-1 2:1 5:1 6:1 7:1 8:-1 11:1 12:1 15:1 16:1 17:1 18:1 19:-1 21:1 24:1 26:1 29:1 30:1 32:1 33:1 34:1 35:1 36:-1 37:1 40:1 41:-1 42:1 45:1 46:1 
64 1:-1 2:1 5:1 6:1 7:1 8:-1 10:1 14:1 15:-1 16:1 17:1 18:1 19:1 21:1 25:1 26:1 29:1 30:1 32:1 33:1 34:1 35:1 36:-1 37:1 40:1 41:1 42:1 44:1 46:1 
64 1:-1 2:1 5:1 6:1 7:1 8:-1 9:1 14:1 15:1 16:1 17:1 18:1 19:1 21:1 25:1 26:1 29:1 30:1 31:1 32:1 33:1 34:1 35:1 36:-1 37:1 38:1 41:-1 42:1 45:1 46:1 
64 1:-1 2:1 5:1 6:1 7:1 8:-1 9:1 14:1 15:-1 16:1 17:1 18:1 19:1 21:1 25:1 26:1 29:-1 30:1 32:1 33:1 34:1 35:1 36:-1 37:1 40:1 41:-1 42:1 43:1 46:1 
64 1:-1 4:1 5:1 6:-1 7:1 8:-1 11:1 12:1 15:-1 16:-1 17:-1 18:1 19:1 22:1 23:1 26:1 29:-1 30:1 32:-1 33:1 34:-1 35:-1 36:1 37:1 39:1 41:1 42:1 45:1 46:1 
64 1:1 2:1 5:1 6:1 7:1 8:-1 9:1 14:1 15:-1 16:1 17:1 18:1 19:1 21:1 23:1 26:1 29:1 30:1 32:1 33:1 34:1 35:1 36:-1 37:1 40:1 41:-1 42:1 44:1 46:1 
64 1:-1 2:1 5:1 6:-1 7:1 8:-1 10:1 14:1 15:-1 16:-1 17:1 18:1 19:1 21:1 24:1 26:1 29:-1 30:-1 32:-1 33:1 34:-1 35:1 36:-1 37:1 39:1 41:-1 42:1 43:1 46:1 
64 1:1 2:1 5:1 6:1 7:1 8:-1 10:1 14:1 15:-1 16:1 17:1 18:1 19:-1 21:1 23:1 26:1 29:1 30:1 32:1 33:1 34:1 35:1 36:1 37:-1 40:1 41:-1 42:1 45:1 46:1 
64 1:1 2:1 5:1 6:1 7:1 8:-1 10:1 14:1 15:-1 16:1 17:1 18:1 19:1 21:1 23:1 26:1 29:1 30:1 32:1 33:1 34:1 35:1 36:1 37:1 38:1 41:-1 42:-1 44:1 46:1 
64 1:1 2:1 5:1 6:1 7:1 8:-1 10:1 14:1 15:-1 16:-1 17:1 18:1 19:1 21:1 24:1 26:1 29:-1 30:-1 32:-1 33:1 34:-1 35:1 36:-1 37:-1 39:1 41:-1 42:1 43:1 46:-1 
64 1:-1 2:1 5:1 6:1 7:1 8:-1 9:1 14:1 15:-1 16:1 17:1 18:-1 19:1 21:1 25:1 26:1 29:1 30:1 32:1 33:1 34:1 35:1 36:1 37:1 38:1 41:-1 42:1 44:1 46:1 
64 1:-1 2:1 5:1 6:1 7:1 8:-1 9:1 12:1 15:-1 16:1 17:1 18:1 19:-1 21:1 24:1 26:1 29:1 30:1 32:1 33:1 34:1 35:1 36:1 37:1 38:1 41:-1 42:1 45:1 46:1 
64 1:1 2:1 5:1 6:1 7:1 8:-1 11:1 12:1 15:1 16:1 17:1 18:1 19:-1 21:1 24:1 26:1 29:1 30:1 32:1 33:1 34:1 35:1 36:-1 37:-1 40:1 41:-1 42:1 45:1 46:1 
64 1:-1 2:1 5:-1 6:1 7:-1 8:-1 9:1 14:1 15:1 16:1 17:1 18:-1 19:-1 21:1 25:1 26:1 29:1 30:1 31:1 32:1 33:1 34:1 35:1 36:1 37:-1 40:1 41:-1 42:1 45:1 46:1 
14.67435621133167 1:-1 2:1 5:1 6:1 7:1 8:-1 9:1 14:1 15:1 16:1 17:1 18:1 19:-1 22:1 23:1 26:1 29:1 30:1 32:1 33:1 34:1 35:1 36:1 37:1 38:1 41:-1 42:1 45:1 46:1 
64 1:-1 2:1 5:1 6:1 7:1 8:-1 11:1 14:1 15:1 16:1 17:1 18:1 19:1 21:1 23:1 26:1 29:1 30:1 32:1 33:1 34:1 35:1 36:-1 37:1 39:1 41:1 42:1 45:1 46:1 
64 1:1 2:1 5:1 6:1 7:1 8:-1 10:1 12:1 15:1 16:1 17:1 18:1 19:-1 21:1 25:1 26:1 29:1 30:1 32:1 33:1 34:1 35:1 36:-1 37:1 40:1 41:-1 42:1 44:1 46:1 
50.84217217466644 1:1 2:1 5:1 6:1 7:1 8:-1 9:1 14:1 15:1 16:1 17:1 18:-1 19:-1 21:1 25:1 26:1 29:-1 30:1 32:1 33:1 34:1 35:1 36:1 37:-1 40:1 41:-1 42:1 44:1 46:1 
64 1:1 2:1 5:1 6:1 7:1 8:-1 9:1 14:1 15:-1 16:1 17:1 18:1 19:1 21:1 23:1 26:1 29:1 30:1 32:1 33:1 34:1 35:1 36:1 37:1 39:1 41:-1 42:-1 44:1 46:1 
64 1:1 2:1 5:1 6:1 7:1 8:-1 10:1 12:1 15:1 16:1 17:1 18:1 19:-1 21:1 23:1 26:1 29:1 30:1 32:1 33:1 34:1 35:1 36:-1 37:1 40:1 41:-1 42:1 44:1 46:1 
64 1:1 2:1 5:1 6:1 7:1 8:-1 11:1 14:1 15:-1 16:1 17:1 18:1 19:1 20:1 24:1 26:1 29:1 30:1 32:1 33:1 34:1 35:1 36:-1 37:1 40:1 41:-1 42:1 43:1 46:1 
64 1:1 2:1 5:1 6:1 7:1 8:-1 9:1 12:1 15:1 16:1 17:1 18:1 19:-1 21:1 24:1 26:1 29:1 30:1 32:1 33:1 34:1 35:1 36:1 37:-1 40:1 41:-1 42:1 45:1 46:1 
64 1:1 2:1 5:1 6:1 7:1 8:-1 11:1 12:1 15:1 16:1 17:1 18:1 19:-1 21:1 24:1 26:1 29:1 30:1 32:1 33:1 34:1 35:1 36:-1 37:1 38:1 41:-1 42:1 44:1 46:1 
16.48841946604818 1:1 2:1 5:1 6:1 7:1 8:-1 10:1 12:1 15:-1 16:1 17:1 18:1 19:1 22:1 24:1 26:1 29:1 30:1 32:1 33:1 34:1 35:1 36:-1 37:1 40:1 41:-1 42:1 44:1 46:1 
64 1:-1 2:1 5:1 6:1 7:1 8:-1 10:1 14:1 15:1 16:1 17:1 18:1 19:-1 21:1 24:1 28:1 29:1 30:1 32:1 33:1 34:1 35:1 36:1 37:1 40:1 41:-1 42:-1 44:1 46:1 
64 1:1 2:1 5:1 6:1 7:1 8:-1 9:1 14:1 15:1 16:1 17:1 18:1 19:-1 21:1 23:1 26:1 29:1 30:1 32:1 33:1 34:1 35:1 36:1 37:1 40:1 41:-1 42:1 44:1 46:1 
64 1:-1 2:1 5:1 6:1 7:1 8:-1 10:1 14:1 15:-1 16:1 17:1 18:1 19:1 21:1 23:1 26:1 29:1 30:1 32:1 33:1 34:1 35:1 36:1 37:1 38:1 41:-1 42:1 45:1 46:1 
64 1:1 2:1 5:1 6:1 7:1 8:-1 10:1 14:1 15:-1 16:1 17:1 18:1 19:-1 21:1 23:1 26:1 29:1 30:1 32:1 33:1 34:1 35:1 36:-1 37:1 39:1 41:-1 42:-1 44:1 46:1 
64 1:1 2:1 5:1 6:1 7:1 8:-1 11:1 14:1 15:-1 16:1 17:1 18:1 19:1 20:1 24:1 26:1 29:1 30:1 32:1 33:1 34:1 35:1 36:-1 37:1 40:1 41:-1 42:1 43:1 46:1 
64 1:-1 4:1 5:-1 6:1 7:-1 8:-1 9:1 14:1 15:-1 16:1 17:1 18:-1 19:1 21:1 23:1 28:1 29:1 30:-1 31:1 32:1 33:1 34:1 35:1 36:1 37:-1 39:1 41:-1 42:1 45:1 46:1 
64 1:1 2:1 5:1 6:1 7:1 8:-1 11:1 12:1 15:-1 16:1 17:1 18:1 19:1 21:1 25:1 26:1 29:1 30:1 32:1 33:1 34:1 35:1 36:-1 37:1 39:1 41:-1 42:1 44:1 46:1 
64 1:1 2:1 5:1 6:1 7:1 8:-1 11:1 14:1 15:1 16:1 17:1 18:1 19:-1 21:1 24:1 26:1 29:1 30:1 32:1 33:1 34:1 35:1 36:1 37:-1 39:1 41:1 42:-1 44:1 46:1 
64 1:1 2:1 5:1 6:1 7:1 8:-1 10:1 14:1 15:1 16:1 17:1 18:1 19:-1 21:1 23:1 26:1 29:1 30:1 32:1 33:1 34:1 35:1 36:1 37:-1 40:1 41:-1 42:1 45:1 46:1 
64 1:1 2:1 5:1 6:1 7:1 8:-1 9:1 14:1 15:-1 16:1 17:1 18:1 19:-1 21:1 23:1 26:1 29:1 30:1 32:1 33:1 34:1 35:1 36:1 37:1 40:1 41:1 42:1 44:1 46:1 
64 1:1 4:1 5:1 6:1 7:1 8:-1 9:1 14:1 15:1 16:1 17:1 18:-1 19:-1 21:1 23:1 26:1 29:-1 30:-1 32:1 33:1 34:1 35:1 36:1 37:-1 38:1 41:1 42:1 43:1 46:-1 
64 1:1 2:1 5:1 6:1 7:1 8:-1 11:1 12:1 15:1 16:1 17:1 18:1 19:-1 21:1 24:1 26:1 29:1 30:1 32:1 33:1 34:1 35:1 36:-1 37:-1 40:1 41:-1 42:1 45:1 46:1 
17.0598513201865 1:1 2:1 5:1 6:1 7:1 8:-1 10:1 12:1 15:-1 16:1 17:1 18:1 19:1 22:1 24:1 26:1 29:1 30:1 32:1 33:1 34:1 35:1 36:-1 37:1 40:1 41:-1 42:1 44:1 46:1 
64 1:1 2:1 5:1 6:1 7:1 8:-1 10:1 14:1 15:-1 16:-1 17:-1 18:1 19:1 21:1 23:1 26:1 29:-1 30:1 32:-1 33:-1 34:-1 35:-1 36:1 37:1 40:1 41:-1 42:-1 44:1 46:-1 
64 1:1 2:1 5:1 6:1 7:1 8:-1 11:1 14:1 15:-1 16:1 17:1 18:1 19:1 21:1 24:1 26:1 29:1 30:1 32:1 33:1 34:1 35:1 36:-1 37:-1 39:1 41:-1 42:1 44:1 46:1 
64 1:1 2:1 5:1 6:1 7:1 8:-1 9:1 14:1 15:-1 16:1 17:1 18:1 19:-1 21:1 23:1 26:1 29:1 30:1 32:1 33:1 34:1 35:1 36:1 37:1 40:1 41:-1 42:1 44:1 46:1 
34.19468945398242 1:1 2:1 5:1 6:1 7:1 8:-1 9:1 14:1 15:-1 16:-1 17:-1 18:1 19:1 21:1 23:1 26:1 29:-1 30:1 32:-1 33:1 34:-1 35:1 36:-1 37:-1 40:1 41:1 42:1 45:1 46:-1 
64 1:-1 2:1 5:1 6:1 7:1 8:-1 11:1 12:1 15:1 16:1 17:1 18:1 19:-1 21:1 23:1 26:1 29:1 30:1 32:1 33:1 34:1 35:1 36:1 37:1 40:1 41:-1 42:1 45:1 46:1 
64 1:1 2:1 5:1 6:1 7:1 8:-1 11:1 14:1 15:-1 16:1 17:1 18:1 19:1 21:1 23:1 26:1 29:1 30:1 31:1 32:1 33:1 34:1 35:1 36:-1 37:1 39:1 41:-1 42:1 44:1 46:1 
64 1:1 2:1 5:1 6:1 7:1 8:-1 11:1 12:1 15:-1 16:1 17:1 18:1 19:1 21:1 24:1 26:1 29:1 30:1 32:1 33:1 34:1 35:1 36:1 37:1 39:1 41:-1 42:1 44:1 46:1 
64 1:1 2:1 5:1 6:1 7:1 8:-1 10:1 14:1 15:-1 16:1 17:1 18:1 19:-1 21:1 25:1 26:1 29:1 30:1 32:1 33:1 34:1 35:1 36:-1 37:-1 40:1 41:1 42:1 44:1 46:1 
64 1:1 2:1 5:1 6:1 7:1 8:-1 10:1 14:1 15:1 16:1 17:1 18:1 19:-1 21:1 24:1 26:1 29:1 30:1 32:1 33:1 34:1 35:1 36:-1 37:-1 39:1 41:1 42:-1 45:1 46:1 
64 1:-1 2:1 5:1 6:1 7:1 8:-1 10:1 12:1 15:1 16:1 17:1 18:1 19:1 21:1 24:1 26:1 29:1 30:1 31:1 32:1 33:1 34:1 35:1 36:-1 37:1 40:1 41:-1 42:1 45:1 46:1 
64 1:1 2:1 5:-1 6:-1 7:1 8:-1 9:1 14:1 15:-1 16:1 17:1 18:1 19:1 21:1 23:1 26:1 29:1 30:1 32:1 33:1 34:1 35:1 36:-1 37:1 39:1 41:-1 42:1 44:1 46:1 
64 1:1 2:1 5:1 6:1 7:1 8:-1 10:1 12:1 15:-1 16:1 17:1 18:1 19:-1 21:1 24:1 26:1 29:1 30:1 32:1 33:1 34:1 35:1 36:1 37:1 40:1 41:-1 42:1 45:1 46:1 
64 1:-1 2:1 5:1 6:1 7:1 8:-1 11:1 14:1 15:-1 16:1 17:1 18:1 19:1 21:1 23:1 26:1 29:1 30:1 32:1 33:1 34:1 35:1 36:1 37:1 40:1 41:-1 42:1 44:1 46:1 
64 1:1 2:1 5:1 6:1 7:1 8:-1 11:1 14:1 15:1 16:1 17:1 18:1 19:-1 21:1 23:1 26:1 29:1 30:1 32:1 33:1 34:1 35:1 36:1 37:1 40:1 41:-1 42:-1 44:1 46:1 
64 1:1 2:1 5:1 6:1 7:1 8:-1 9:1 14:1 15:-1 16:1 17:1 18:1 19:1 21:1 23:1 26:1 29:1 30:1 32:1 33:1 34:1 35:1 36:-1 37:1 39:1 41:-1 42:1 44:1 46:1 
64 1:-1 2:1 5:1 6:1 7:1 8:-1 9:1 14:1 15:-1 16:1 17:1 18:-1 19:1 21:1 25:1 26:1 29:1 30:1 32:1 33:1 34:1 35:1 36:-1 37:1 38:1 41:-1 42:1 44:1 46:1 
64 1:1 4:1 5:1 6:1 7:1 8:-1 11:1 14:1 15:-1 16:1 17:1 18:1 19:1 21:1 23:1 28:1 29:-1 30:1 32:1 33:1 34:1 35:1 36:1 37:1 39:1 41:-1 42:-1 44:1 46:1 
64 1:-1 2:1 5:-1 6:1 7:-1 8:-1 11:1 14:1 15:-1 16:1 17:1 18:-1 19:1 21:1 23:1 26:1 29:1 30:1 31:1 32:1 33:1 34:1 35:1 36:1 37:-1 40:1 41:-1 42:-1 43:1 46:1 
64 1:1 2:1 5:1 6:1 7:1 8:-1 9:1 14:1 15:-1 16:1 17:1 18:1 19:1 21:1 23:1 26:1 29:1 30:1 32:1 33:1 34:1 35:1 36:1 37:-1 39:1 41:-1 42:1 45:1 46:1 
64 1:1 2:1 5:1 6:1 7:1 8:-1 11:1 14:1 15:-1 16:1 17:1 18:1 19:1 21:1 23:1 26:1 29:1 30:1 32:1 33:1 34:1 35:1 36:1 37:-1 39:1 41:-1 42:1 45:1 46:1 
64 1:-1 2:1 5:1 6:1 7:1 8:-1 9:1 14:1 15:1 16:1 17:1 18:1 19:1 21:1 25:1 26:1 29:1 30:1 32:1 33:1 34:1 35:1 36:-1 37:1 38:1 41:-1 42:-1 45:1 46:1 
64 1:1 4:1 5:1 6:1 7:1 8:-1 9:1 12:1 15:-1 16:1 17:1 18:-1 19:1 21:1 24:1 26:1 29:1 30:1 32:1 33:1 34:1 35:1 36:1 37:1 39:1 41:-1 42:1 43:1 46:1 
64 1:-1 2:1 5:1 6:1 7:1 8:-1 10:1 12:1 15:1 16:1 17:1 18:1 19:-1 21:1 23:1 26:1 29:1 30:1 32:1 33:1 34:1 35:1 36:-1 37:1 40:1 41:-1 42:1 45:1 46:1 
64 1:1 2:1 5:1 6:1 7:1 8:-1 10:1 12:1 15:1 16:1 17:1 18:1 19:-1 21:1 23:1 26:1 29:1 30:1 32:1 33:1 34:1 35:1 36:1 37:-1 40:1 41:-1 42:1 45:1 46:1 
64 1:1 2:1 5:1 6:1 7:1 8:-1 11:1 14:1 15:1 16:1 17:1 18:1 19:-1 21:1 23:1 26:1 29:1 30:1 32:1 33:1 34:1 35:1 36:1 37:1 39:1 41:-1 42:1 44:1 46:1 
64 1:-1 2:1 5:1 6:1 7:1 8:-1 11:1 14:1 15:-1 16:1 17:1 18:1 19:1 21:1 23:1 26:1 29:1 30:1 32:1 33:1 34:1 35:1 36:-1 37:1 39:1 41:-1 42:1 45:1 46:1 
64 1:1 4:1 5:1 6:1 7:1 8:-1 10:1 12:1 15:-1 16:1 17:1 18:1 19:1 21:1 24:1 28:1 29:1 30:1 32:1 33:1 34:1 35:1 36:-1 37:-1 40:1 41:-1 42:1 44:1 46:-1 
64 1:1 2:1 5:1 6:1 7:1 8:-1 10:1 14:1 15:1 16:1 17:1 18:1 19:-1 21:1 23:1 26:1 29:1 30:1 32:1 33:1 34:1 35:1 36:-1 37:-1 40:1 41:1 42:1 45:1 46:1 
64 1:1 2:1 5:1 6:1 7:1 8:-1 9:1 12:1 15:1 16:1 17:1 18:-1 19:-1 21:1 23:1 26:1 29:1 30:1 32:1 33:1 34:1 35:1 36:-1 37:1 39:1 41:-1 42:-1 45:1 46:1 
64 1:1 2:1 5:1 6:1 7:1 8:-1 9:1 14:1 15:-1 16:1 17:1 18:1 19:1 21:1 25:1 26:1 29:1 30:1 32:1 33:1 34:1 35:1 36:-1 37:1 39:1 41:-1 42:1 44:1 46:1 
64 1:1 2:1 5:1 6:1 7:1 8:-1 10:1 12:1 15:-1 16:1 17:1 18:1 19:1 21:1 24:1 26:1 29:1 30:1 32:1 33:1 34:1 35:1 36:-1 37:1 40:1 41:-1 42:1 44:1 46:1 
64 1:1 2:1 5:1 6:1 7:1 8:-1 9:1 14:1 15:1 16:1 17:1 18:1 19:-1 22:1 25:1 26:1 29:1 30:1 32:1 33:1 34:1 35:1 36:1 37:-1 40:1 41:1 42:-1 44:1 46:1 
64 1:-1 2:1 5:-1 6:1 7:-1 8:-1 9:1 14:1 15:1 16:1 17:1 18:-1 19:-1 21:1 25:1 26:1 29:1 30:1 31:1 32:1 33:1 34:1 35:1 36:1 37:-1 40:1 41:-1 42:1 45:1 46:1 
64 1:-1 2:1 5:1 6:-1 7:1 8:-1 9:1 12:1 15:1 16:1 17:1 18:1 19:-1 21:1 23:1 26:1 29:1 30:1 32:1 33:1 34:1 35:1 36:-1 37:1 40:1 41:-1 42:1 45:1 46:1 
64 1:-1 2:1 5:1 6:1 7:1 8:-1 11:1 14:1 15:-1 16:1 17:1 18:1 19:1 21:1 25:1 26:1 29:-1 30:1 32:1 33:1 34:1 35:1 36:-1 37:1 39:1 41:-1 42:1 43:1 46:1 
9.737688184482552 1:1 2:1 5:1 6:1 7:1 8:-1 9:1 14:1 15:-1 16:-1 17:1 18:1 19:1 21:1 25:1 26:1 29:1 30:1 32:1 33:1 34:-1 35:1 36:1 37:1 39:1 41:-1 42:1 44:1 46:1 
64 1:-1 2:1 5:1 6:1 7:1 8:-1 11:1 12:1 15:1 16:1 17:1 18:1 19:1 21:1 24:1 26:1 29:1 30:1 32:1 33:1 34:1 35:1 36:1 37:1 38:1 41:-1 42:-1 45:1 46:1 
64 1:-1 2:1 5:1 6:1 7:1 8:-1 11:1 12:1 15:1 16:1 17:1 18:1 19:-1 21:1 23:1 26:1 29:1 30:1 32:1 33:1 34:1 35:1 36:1 37:1 40:1 41:-1 42:1 45:1 46:1 
64 1:1 2:1 5:1 6:1 7:1 8:-1 10:1 12:1 15:-1 16:1 17:1 18:-1 19:-1 22:1 24:1 26:1 29:1 30:1 32:1 33:1 34:1 35:1 36:-1 37:-1 40:1 41:-1 42:1 44:1 46:1 
64 1:1 2:1 5:1 6:-1 7:1 8:-1 11:1 14:1 15:-1 16:-1 17:-1 18:1 19:1 21:1 24:1 26:1 29:1 30:1 31:1 32:1 33:1 34:-1 35:1 36:-1 37:1 39:1 41:1 42:1 44:1 46:1 
64 1:1 2:1 5:1 6:1 7:1 8:-1 11:1 14:1 15:1 16:1 17:1 18:1 19:-1 21:1 23:1 26:1 29:1 30:1 32:1 33:1 34:1 35:1 36:1 37:1 39:1 41:-1 42:1 44:1 46:1 
64 1:-1 2:1 5:1 6:1 7:1 8:-1 10:1 14:1 15:-1 16:1 17:1 18:1 19:1 21:1 23:1 26:1 29:1 30:1 31:1 32:1 33:1 34:1 35:1 36:-1 37:1 39:1 41:-1 42:1 45:1 46:1 
64 1:1 2:1 5:1 6:1 7:1 8:-1 11:1 14:1 15:-1 16:-1 17:-1 18:1 19:1 21:1 23:1 26:1 29:-1 30:1 32:-1 33:1 34:-1 35:1 36:-1 37:1 39:1 41:-1 42:1 44:1 46:-1 
64 1:1 2:1 5:1 6:1 7:1 8:-1 11:1 14:1 15:-1 16:1 17:1 18:1 19:1 20:1 24:1 26:1 29:1 30:1 32:1 33:1 34:1 35:1 36:-1 37:1 40:1 41:-1 42:1 43:1 46:1 
64 1:-1 2:1 5:1 6:1 7:1 8:-1 9:1 12:1 15:-1 16:1 17:1 18:-1 19:-1 22:1 24:1 27:1 29:1 30:1 32:1 33:1 34:1 35:1 36:-1 37:1 40:1 41:1 42:1 44:1 46:1 
64 1:1 2:1 5:1 6:1 7:1 8:-1 10:1 14:1 15:-1 16:1 17:1 18:1 19:-1 21:1 23:1 26:1 29:1 30:1 32:1 33:1 34:1 35:1 36:-1 37:1 39:1 41:-1 42:1 44:1 46:1 
64 1:-1 4:1 5:1 6:-1 7:1 8:-1 9:1 12:1 15:-1 16:1 17:1 18:1 19:1 21:1 24:1 27:1 29:1 30:1 32:1 33:1 34:1 35:1 36:1 37:1 40:1 41:-1 42:1 44:1 46:1 
24.10251156611516 1:1 4:1 5:1 6:1 7:1 8:-1 10:1 12:1 15:-1 16:1 17:1 18:1 19:1 21:1 24:1 28:1 29:1 30:1 32:1 33:1 34:1 35:1 36:-1 37:1 40:1 41:-1 42:1 44:1 46:1 
64 1:1 2:1 5:1 6:1 7:1 8:-1 9:1 12:1 15:1 16:1 17:1 18:1 19:-1 21:1 24:1 26:1 29:1 30:1 32:1 33:1 34:1 35:1 36:1 37:-1 40:1 41:-1 42:1 45:1 46:1 
64 1:1 2:1 5:1 6:1 7:1 8:-1 11:1 12:1 15:-1 16:1 17:1 18:1 19:1 21:1 25:1 26:1 29:1 30:1 32:1 33:1 34:1 35:1 36:1 37:-1 38:1 41:-1 42:1 45:1 46:1 
64 1:-1 2:1 5:1 6:1 7:1 8:-1 11:1 12:1 15:1 16:1 17:1 18:1 19:-1 21:1 24:1 26:1 29:1 30:1 32:1 33:1 34:1 35:1 36:1 37:1 38:1 41:-1 42:1 45:1 46:1 
32.68620945283144 1:1 2:1 5:1 6:1 7:1 8:-1 11:1 12:1 15:-1 16:1 17:1 18:1 19:1 21:1 24:1 26:1 29:1 30:1 32:1 33:1 34:-1 35:1 36:1 37:1 39:1 41:-1 42:1 45:1 46:1 
64 1:1 4:1 5:1 6:1 7:1 8:-1 9:1 12:1 15:-1 16:1 17:1 18:-1 19:1 21:1 24:1 26:1 29:1 30:1 32:1 33:1 34:1 35:1 36:1 37:1 39:1 41:-1 42:-1 43:1 46:1 
64 1:1 4:1 5:1 6:1 7:1 8:-1 11:1 14:1 15:-1 16:1 17:1 18:1 19:1 21:1 23:1 26:1 29:1 30:1 32:1 33:1 34:1 35:1 36:-1 37:1 39:1 41:1 42:1 44:1 46:1 
64 1:1 4:1 5:1 6:-1 7:1 8:-1 9:1 12:1 15:-1 16:1 17:1 18:1 19:1 21:1 25:1 28:1 29:1 30:1 32:1 33:1 34:1 35:1 36:1 37:1 40:1 41:-1 42:1 44:1 46:1 
64 1:1 2:1 5:1 6:1 7:1 8:-1 10:1 14:1 15:1 16:1 17:1 18:1 19:-1 21:1 24:1 26:1 29:1 30:1 32:1 33:1 34:1 35:1 36:-1 37:-1 40:1 41:-1 42:-1 45:1 46:1 
64 1:-1 2:1 5:1 6:1 7:1 8:-1 11:1 14:1 15:1 16:1 17:1 18:1 19:-1 21:1 24:1 27:1 29:1 30:1 32:1 33:1 34:1 35:1 36:-1 37:1 39:1 41:-1 42:1 44:1 46:1 
64 1:1 4:1 5:1 6:1 7:1 8:-1 9:1 14:1 15:-1 16:1 17:1 18:1 19:1 21:1 24:1 26:1 29:-1 30:-1 32:-1 33:-1 34:-1 35:-1 36:1 37:-1 39:1 41:-1 42:1 44:1 46:-1 
64 1:1 2:1 5:1 6:1 7:1 8:-1 9:1 14:1 15:1 16:-1 17:1 18:1 19:1 21:1 23:1 26:1 29:1 30:1 32:1 33:-1 34:-1 35:-1 36:1 37:-1 39:1 41:-1 42:1 45:1 46:1 
64 1:1 2:1 5:1 6:1 7:1 8:-1 10:1 12:1 15:1 16:1 17:1 18:1 19:1 21:1 23:1 28:1 29:1 30:1 32:1 33:1 34:1 35:1 36:-1 37:1 40:1 41:-1 42:1 44:1 46:1 
50.56595077768953 1:1 2:1 5:1 6:1 7:1 8:-1 11:1 14:1 15:-1 16:1 17:1 18:1 19:1 22:1 23:1 26:1 29:1 30:1 32:1 33:1 34:1 35:1 36:1 37:-1 39:1 41:1 42:-1 45:1 46:1 
64 1:1 2:1 5:1 6:1 7:1 8:-1 9:1 12:1 15:1 16:1 17:1 18:1 19:-1 21:1 23:1 26:1 29:1 30:1 32:1 33:1 34:1 35:1 36:1 37:-1 40:1 41:-1 42:1 45:1 46:1 
22.24676676701255 1:-1 2:1 5:-1 6:1 7:-1 8:-1 10:1 14:1 15:-1 16:1 17:1 18:-1 19:1 21:1 23:1 26:1 29:1 30:-1 31:1 32:1 33:1 34:1 35:1 36:-1 37:-1 40:1 41:-1 42:1 45:1 46:-1 
64 1:1 2:1 5:1 6:1 7:1 8:-1 9:1 14:1 15:1 16:1 17:1 18:1 19:-1 21:1 24:1 26:1 29:1 30:1 32:1 33:1 34:1 35:1 36:1 37:1 39:1 41:-1 42:1 44:1 46:1 
64 1:-1 2:1 5:-1 6:1 7:-1 8:-1 9:1 14:1 15:-1 16:1 17:1 18:-1 19:1 21:1 23:1 26:1 29:1 30:-1 31:1 32:1 33:1 34:1 35:1 36:1 37:-1 40:1 41:-1 42:1 45:1 46:-1 
64 1:1 2:1 5:1 6:1 7:1 8:-1 10:1 12:1 15:1 16:1 17:1 18:-1 19:-1 21:1 23:1 26:1 29:1 30:1 31:1 32:1 33:1 34:1 35:1 36:-1 37:1 39:1 41:-1 42:1 45:1 46:1 
64 1:1 2:1 5:1 6:-1 7:1 8:-1 9:1 12:1 15:-1 16:1 17:1 18:1 19:-1 21:1 23:1 27:1 29:1 30:1 32:1 33:1 34:1 35:1 36:1 37:1 40:1 41:-1 42:1 45:1 46:1 
64 1:1 4:1 5:1 6:1 7:1 8:-1 11:1 13:1 15:-1 16:1 17:1 18:1 19:1 21:1 24:1 26:1 29:1 30:1 32:1 33:1 34:1 35:1 36:1 37:1 40:1 41:-1 42:1 43:1 46:1 
64 1:1 2:1 5:1 6:1 7:1 8:-1 11:1 14:1 15:-1 16:1 17:1 18:1 19:1 21:1 23:1 26:1 29:1 30:1 32:1 33:1 34:1 35:1 36:-1 37:1 39:1 41:1 42:1 44:1 46:1 
64 1:1 2:1 5:1 6:-1 7:1 8:-1 9:1 14:1 15:1 16:1 17:1 18:1 19:-1 21:1 24:1 26:1 29:1 30:1 32:1 33:1 34:1 35:1 36:-1 37:1 38:1 41:-1 42:1 44:1 46:1 
64 1:1 4:1 5:1 6:1 7:1 8:-1 10:1 12:1 15:-1 16:1 17:1 18:1 19:1 21:1 25:1 26:1 29:1 30:1 32:1 33:1 34:1 35:1 36:1 37:1 40:1 41:-1 42:1 44:1 46:1 
64 1:1 2:1 5:1 6:1 7:1 8:-1 11:1 13:1 15:-1 16:1 17:1 18:1 19:1 21:1 23:1 26:1 29:1 30:1 32:1 33:1 34:1 35:1 36:1 37:1 40:1 41:-1 42:1 44:1 46:1 
64 1:1 2:1 5:1 6:1 7:1 8:-1 10:1 12:1 15:-1 16:1 17:1 18:1 19:-1 22:1 25:1 26:1 29:1 30:1 32:1 33:1 34:1 35:1 36:-1 37:-1 38:1 41:-1 42:1 45:1 46:1 
64 1:1 2:1 5:-1 6:-1 7:1 8:-1 9:1 14:1 15:-1 16:1 17:1 18:1 19:1 21:1 23:1 26:1 29:1 30:1 32:1 33:1 34:1 35:1 36:-1 37:1 39:1 41:-1 42:1 44:1 46:1 
64 1:1 2:1 5:1 6:1 7:1 8:-1 10:1 14:1 15:1 16:1 17:1 18:1 19:-1 21:1 24:1 26:1 29:1 30:1 32:1 33:1 34:1 35:1 36:-1 37:-1 39:1 41:1 42:1 45:1 46:1 
64 1:1 4:1 5:1 6:1 7:1 8:-1 11:1 13:1 15:-1 16:1 17:1 18:1 19:1 21:1 24:1 26:1 29:1 30:1 32:1 33:1 34:1 35:1 36:-1 37:1 40:1 41:1 42:1 43:1 46:1 
19.6993822561354 1:1 2:1 5:1 6:1 7:1 8:-1 11:1 14:1 15:-1 16:1 17:1 18:1 19:1 22:1 23:1 26:1 29:1 30:1 32:1 33:1 34:1 35:1 36:1 37:-1 39:1 41:1 42:-1 45:1 46:1 
64 1:-1 2:1 5:1 6:1 7:1 8:-1 11:1 14:1 15:1 16:1 17:1 18:1 19:-1 22:1 23:1 28:1 29:1 30:1 32:1 33:1 34:1 35:1 36:-1 37:1 39:1 41:1 42:1 44:1 46:1 
64 1:1 2:1 5:1 6:1 7:1 8:-1 9:1 14:1 15:-1 16:1 17:1 18:1 19:1 21:1 25:1 26:1 29:1 30:1 32:1 33:1 34:1 35:1 36:-1 37:1 39:1 41:-1 42:1 44:1 46:1 
64 1:1 2:1 5:1 6:1 7:1 8:-1 10:1 12:1 15:1 16:1 17:1 18:1 19:1 21:1 24:1 26:1 29:1 30:1 32:1 33:1 34:1 35:1 36:1 37:1 40:1 41:1 42:1 45:1 46:1 
64 1:1 2:1 5:1 6:1 7:1 8:-1 9:1 14:1 15:1 16:1 17:1 18:1 19:-1 21:1 24:1 26:1 29:1 30:1 32:1 33:1 34:1 35:1 36:1 37:1 40:1 41:-1 42:-1 44:1 46:1 
64 1:1 2:1 5:1 6:-1 7:1 8:-1 11:1 12:1 15:-1 16:-1 17:-1 18:1 19:1 21:1 25:1 26:1 29:-1 30:1 32:-1 33:1 34:-1 35:-1 36:-1 37:1 39:1 41:-1 42:1 45:1 46:1 
64 1:1 2:1 5:1 6:1 7:1 8:-1 10:1 14:1 15:-1 16:1 17:1 18:1 19:1 21:1 24:1 26:1 29:1 30:1 32:1 33:1 34:1 35:1 36:1 37:1 39:1 41:-1 42:1 44:1 46:1 
64 1:1 4:1 5:1 6:1 7:1 8:-1 11:1 13:1 15:-1 16:1 17:1 18:1 19:1 21:1 24:1 26:1 29:1 30:1 32:1 33:1 34:1 35:1 36:1 37:1 40:1 41:-1 42:1 43:1 46:1 
64 1:-1 2:1 5:-1 6:-1 7:-1 8:-1 11:1 14:1 15:-1 16:1 17:1 18:-1 19:1 21:1 23:1 26:1 29:1 30:-1 31:1 32:1 33:1 34:1 35:1 36:-1 37:-1 39:1 41:-1 42:1 45:1 46:1 
64 1:1 2:1 5:1 6:1 7:1 8:-1 10:1 14:1 15:-1 16:1 17:1 18:1 19:1 21:1 23:1 26:1 29:1 30:1 32:1 33:1 34:1 35:1 36:-1 37:1 39:1 41:-1 42:1 45:1 46:1 
64 1:-1 2:1 5:1 6:-1 7:1 8:-1 10:1 12:1 15:-1 16:-1 17:-1 18:1 19:1 21:1 25:1 26:1 29:-1 30:1 32:-1 33:1 34:-1 35:-1 36:1 37:1 38:1 41:-1 42:1 45:1 46:1 
64 1:1 4:1 5:1 6:-1 7:1 8:-1 9:1 12:1 15:-1 16:1 17:1 18:1 19:1 21:1 25:1 28:1 29:1 30:1 32:1 33:1 34:1 35:1 36:1 37:1 40:1 41:-1 42:1 44:1 46:1 
64 1:1 2:1 5:1 6:1 7:1 8:-1 11:1 14:1 15:-1 16:1 17:1 18:1 19:-1 22:1 23:1 26:1 29:1 30:1 32:1 33:1 34:1 35:1 36:1 37:1 39:1 41:1 42:-1 44:1 46:1 
64 1:1 2:1 5:1 6:1 7:1 8:-1 10:1 14:1 15:-1 16:1 17:1 18:1 19:1 21:1 25:1 26:1 29:1 30:1 32:1 33:1 34:1 35:1 36:-1 37:-1 40:1 41:1 42:1 44:1 46:1 
64 1:1 2:1 5:1 6:1 7:1 8:-1 9:1 12:1 15:-1 16:-1 17:-1 18:1 19:1 21:1 25:1 26:1 29:-1 30:1 32:-1 33:1 34:-1 35:-1 36:1 37:-1 39:1 41:-1 42:1 45:1 46:-1 
64 1:-1 2:1 5:1 6:-1 7:1 8:-1 11:1 12:1 15:1 16:1 17:1 18:1 19:-1 21:1 23:1 26:1 29:1 30:1 32:1 33:1 34:1 35:1 36:-1 37:1 39:1 41:-1 42:1 45:1 46:1 
10.04051927465656 1:1 2:1 5:1 6:-1 7:1 8:-1 11:1 14:1 15:1 16:1 17:1 18:1 19:-1 21:1 24:1 26:1 29:1 30:1 32:1 33:1 34:1 35:1 36:1 37:-1 38:1 41:1 42:1 44:1 46:1 
64 1:1 2:1 5:1 6:1 7:1 8:-1 11:1 14:1 15:-1 16:1 17:1 18:1 19:1 21:1 24:1 26:1 29:1 30:1 32:1 33:1 34:1 35:1 36:-1 37:-1 39:1 41:-1 42:-1 45:1 46:1 
64 1:1 2:1 5:-1 6:1 7:1 8:-1 9:1 14:1 15:-1 16:1 17:1 18:1 19:1 21:1 23:1 26:1 29:1 30:1 32:1 33:1 34:1 35:1 36:-1 37:1 39:1 41:-1 42:1 44:1 46:-1 
64 1:1 2:1 5:1 6:1 7:1 8:-1 10:1 14:1 15:1 16:1 17:1 18:1 19:-1 21:1 23:1 26:1 29:1 30:1 32:1 33:1 34:1 35:1 36:1 37:-1 40:1 41:-1 42:1 45:1 46:1 
64 1:1 2:1 5:1 6:1 7:1 8:-1 10:1 14:1 15:-1 16:1 17:1 18:1 19:1 21:1 23:1 26:1 29:1 30:1 32:1 33:1 34:1 35:1 36:-1 37:-1 40:1 41:-1 42:1 43:1 46:1 
0.01353337110625505 1:1 2:1 5:1 6:1 7:1 8:-1 9:1 14:1 15:-1 16:1 17:1 18:1 19:1 21:1 24:1 26:1 29:1 30:1 32:1 33:1 34:1 35:1 36:-1 37:1 40:1 41:-1 42:-1 44:1 46:1 
64 1:1 2:1 5:1 6:1 7:1 8:-1 9:1 14:1 15:-1 16:1 17:1 18:1 19:-1 21:1 24:1 26:1 29:1 30:1 32:1 33:1 34:1 35:1 36:-1 37:1 39:1 41:-1 42:1 44:1 46:1 
18.43489657114379 1:1 4:1 5:1 6:1 7:1 8:-1 10:1 12:1 15:-1 16:1 17:1 18:1 19:1 21:1 24:1 28:1 29:1 30:1 32:1 33:1 34:1 35:1 36:-1 37:1 40:1 41:-1 42:1 44:1 46:1 
36.41083183338623 1:1 2:1 5:1 6:1 7:1 8:-1 9:1 14:1 15:1 16:1 17:1 18:1 19:-1 21:1 24:1 26:1 29:1 30:1 32:1 33:1 34:1 35:1 36:-1 37:1 38:1 41:-1 42:1 44:1 46:1 
64 1:1 2:1 5:1 6:1 7:1 8:-1 10:1 14:1 15:1 16:1 17:1 18:1 19:-1 22:1 23:1 26:1 29:1 30:1 32:1 33:1 34:1 35:1 36:-1 37:-1 39:1 41:1 42:-1 45:1 46:1 
13.68501006421997 1:1 2:1 5:1 6:1 7:1 8:-1 10:1 12:1 15:-1 16:1 17:1 18:1 19:1 22:1 24:1 26:1 29:1 30:1 32:1 33:1 34:1 35:1 36:-1 37:1 40:1 41:-1 42:1 44:1 46:1 
64 1:1 2:1 5:1 6:1 7:1 8:-1 11:1 12:1 15:1 16:1 17:1 18:1 19:-1 21:1 23:1 26:1 29:1 30:1 32:1 33:1 34:1 35:1 36:1 37:-1 40:1 41:-1 42:1 45:1 46:-1 
64 1:-1 2:1 5:1 6:1 7:1 8:-1 9:1 14:1 15:1 16:1 17:1 18:1 19:-1 22:1 23:1 28:1 29:1 30:-1 31:1 32:1 33:1 34:1 35:1 36:-1 37:1 39:1 41:-1 42:1 45:1 46:1 
64 1:1 2:1 5:1 6:1 7:1 8:-1 9:1 14:1 15:-1 16:1 17:1 18:1 19:-1 21:1 23:1 26:1 29:1 30:1 32:1 33:1 34:1 35:1 36:1 37:-1 40:1 41:-1 42:1 44:1 46:1 
64 1:-1 2:1 5:-1 6:1 7:-1 8:-1 9:1 14:1 15:1 16:1 17:1 18:-1 19:-1 21:1 23:1 26:1 29:1 30:-1 31:1 32:1 33:1 34:1 35:1 36:1 37:-1 40:1 41:1 42:1 45:1 46:1 
64 1:-1 2:1 5:1 6:1 7:1 8:-1 11:1 12:1 15:1 16:1 17:1 18:1 19:-1 21:1 23:1 26:1 29:1 30:1 32:1 33:1 34:1 35:1 36:1 37:1 38:1 41:-1 42:1 45:1 46:1 
64 1:1 2:1 5:1 6:1 7:1 8:-1 9:1 12:1 15:1 16:1 17:1 18:1 19:1 21:1 24:1 26:1 29:1 30:1 32:1 33:1 34:1 35:1 36:-1 37:-1 40:1 41:-1 42:-1 45:1 46:1 
64 1:1 2:1 5:1 6:1 7:1 8:-1 10:1 12:1 15:-1 16:1 17:1 18:1 19:1 21:1 24:1 26:1 29:1 30:1 32:1 33:1 34:1 35:1 36:1 37:1 40:1 41:-1 42:1 44:1 46:1 
64 1:1 2:1 5:1 6:1 7:1 8:-1 11:1 14:1 15:-1 16:1 17:1 18:1 19:1 21:1 23:1 26:1 29:1 30:1 32:1 33:1 34:1 35:1 36:-1 37:1 39:1 41:1 42:1 44:1 46:1 
64 1:1 2:1 5:1 6:1 7:1 8:-1 9:1 14:1 15:1 16:1 17:1 18:1 19:-1 21:1 23:1 26:1 29:1 30:1 32:1 33:1 34:1 35:1 36:1 37:-1 40:1 41:-1 42:1 45:1 46:1 
64 1:-1 2:1 5:1 6:1 7:1 8:-1 11:1 14:1 15:-1 16:1 17:1 18:1 19:-1 21:1 23:1 26:1 29:1 30:1 32:1 33:1 34:1 35:1 36:1 37:1 39:1 41:-1 42:1 45:1 46:1 
64 1:-1 2:1 5:1 6:1 7:1 8:-1 9:1 14:1 15:-1 16:1 17:1 18:1 19:1 21:1 24:1 26:1 29:1 30:1 32:1 33:1 34:1 35:1 36:-1 37:1 39:1 41:1 42:1 44:1 46:1 
64 1:1 2:1 5:1 6:1 7:1 8:-1 9:1 12:1 15:-1 16:1 17:1 18:1 19:1 22:1 24:1 26:1 29:1 30:1 32:1 33:1 34:1 35:1 36:-1 37:1 40:1 41:1 42:1 44:1 46:1 
64 1:-1 2:1 5:1 6:1 7:1 8:-1 9:1 12:1 15:1 16:1 17:1 18:1 19:1 21:1 24:1 28:1 29:1 30:1 32:1 33:1 34:1 35:1 36:1 37:1 40:1 41:-1 42:1 45:1 46:1 
64 1:-1 4:1 5:1 6:1 7:1 8:-1 11:1 12:1 15:-1 16:-1 17:1 18:1 19:1 21:1 24:1 26:1 29:-1 30:1 32:-1 33:1 34:-1 35:1 36:-1 37:1 39:1 41:1 42:1 44:1 46:1 
64 1:1 4:1 5:1 6:1 7:1 8:-1 10:1 12:1 15:-1 16:1 17:1 18:1 19:1 21:1 25:1 27:1 29:1 30:1 32:1 33:1 34:1 35:1 36:1 37:1 40:1 41:-1 42:1 44:1 46:-1 
64 1:1 2:1 5:1 6:1 7:1 8:-1 11:1 14:1 15:-1 16:1 17:1 18:1 19:1 21:1 23:1 26:1 29:1 30:1 32:1 33:1 34:1 35:1 36:-1 37:1 39:1 41:-1 42:1 44:1 46:1 
44.24893788189212 1:-1 4:1 5:-1 6:1 7:-1 8:-1 9:1 14:1 15:-1 16:1 17:1 18:-1 19:1 21:1 23:1 28:1 29:1 30:-1 31:1 32:1 33:1 34:1 35:1 36:1 37:-1 39:1 41:-1 42:1 45:1 46:1 
64 1:1 2:1 5:1 6:1 7:1 8:-1 9:1 14:1 15:-1 16:1 17:1 18:1 19:1 21:1 23:1 26:1 29:1 30:1 32:1 33:1 34:1 35:1 36:-1 37:1 40:1 41:-1 42:1 44:1 46:1 
64 1:1 2:1 5:1 6:1 7:1 8:-1 10:1 14:1 15:1 16:1 17:1 18:1 19:-1 21:1 23:1 26:1 29:1 30:1 32:1 33:1 34:1 35:1 36:-1 37:-1 40:1 41:1 42:1 45:1 46:1 
64 1:-1 2:1 5:1 6:1 7:1 8:-1 10:1 12:1 15:1 16:1 17:1 18:1 19:-1 21:1 23:1 26:1 29:1 30:1 32:1 33:1 34:1 35:1 36:-1 37:1 40:1 41:-1 42:1 45:1 46:1 
64 1:1 2:1 5:1 6:1 7:1 8:-1 11:1 14:1 15:-1 16:1 17:1 18:1 19:1 21:1 24:1 26:1 29:1 30:1 32:1 33:1 34:1 35:1 36:-1 37:-1 39:1 41:-1 42:-1 45:1 46:1 
64 1:1 2:1 5:1 6:1 7:1 8:-1 9:1 12:1 15:1 16:1 17:1 18:-1 19:-1 21:1 23:1 26:1 29:1 30:1 32:1 33:1 34:1 35:1 36:-1 37:1 39:1 41:-1 42:-1 45:1 46:1 
64 1:1 2:1 5:1 6:1 7:1 8:-1 9:1 12:1 15:1 16:1 17:1 18:1 19:1 21:1 23:1 28:1 29:1 30:1 32:1 33:1 34:1 35:1 36:1 37:1 39:1 41:-1 42:1 44:1 46:1 
64 1:1 2:1 5:1 6:1 7:1 8:-1 9:1 12:1 15:-1 16:-1 17:-1 18:1 19:1 21:1 23:1 26:1 29:-1 30:1 32:1 33:1 34:-1 35:1 36:1 37:1 40:1 41:-1 42:-1 44:1 46:1 
64 1:1 2:1 5:1 6:1 7:1 8:-1 9:1 12:1 15:1 16:1 17:1 18:1 19:-1 21:1 23:1 26:1 29:1 30:1 32:1 33:1 34:1 35:1 36:1 37:1 40:1 41:-1 42:1 44:1 46:1 
64 1:1 2:1 5:1 6:-1 7:1 8:-1 10:1 12:1 15:-1 16:-1 17:-1 18:1 19:1 21:1 25:1 26:1 29:-1 30:1 32:-1 33:1 34:-1 35:-1 36:1 37:1 38:1 41:-1 42:1 45:1 46:1 
64 1:1 2:1 5:1 6:1 7:1 8:-1 11:1 12:1 15:-1 16:1 17:1 18:1 19:1 21:1 24:1 26:1 29:1 30:1 32:1 33:1 34:1 35:1 36:-1 37:1 39:1 41:1 42:1 44:1 46:1 
64 1:-1 2:1 5:-1 6:1 7:-1 8:-1 9:1 14:1 15:1 16:1 17:1 18:-1 19:-1 21:1 25:1 26:1 29:1 30:1 31:1 32:1 33:1 34:1 35:1 36:1 37:-1 40:1 41:-1 42:1 45:1 46:1 
64 1:1 2:1 5:1 6:1 7:1 8:-1 10:1 14:1 15:-1 16:1 17:1 18:1 19:1 21:1 24:1 26:1 29:1 30:1 32:1 33:1 34:1 35:1 36:1 37:1 39:1 41:-1 42:1 44:1 46:1 
64 1:1 2:1 5:1 6:1 7:1 8:-1 10:1 14:1 15:1 16:1 17:1 18:1 19:-1 21:1 23:1 26:1 29:1 30:1 32:1 33:1 34:1 35:1 36:-1 37:1 38:1 41:-1 42:1 44:1 46:1 
64 1:1 2:1 5:1 6:1 7:1 8:-1 9:1 12:1 15:1 16:1 17:1 18:1 19:-1 21:1 24:1 26:1 29:1 30:1 32:1 33:1 34:1 35:1 36:-1 37:1 40:1 41:-1 42:1 44:1 46:1 
64 1:1 2:1 5:1 6:1 7:1 8:-1 9:1 14:1 15:1 16:1 17:1 18:1 19:1 21:1 23:1 26:1 29:1 30:1 32:1 33:1 34:1 35:1 36:-1 37:-1 40:1 41:-1 42:1 45:1 46:1 
4.464050034912487 1:1 4:1 5:1 6:1 7:1 8:-1 10:1 12:1 15:-1 16:1 17:1 18:1 19:1 21:1 24:1 28:1 29:1 30:1 32:1 33:1 34:1 35:1 36:-1 37:1 40:1 41:-1 42:1 44:1 46:1 
64 1:-1 2:1 5:1 6:1 7:1 8:-1 10:1 12:1 15:1 16:1 17:1 18:1 19:-1 21:1 23:1 26:1 29:1 30:1 32:1 33:1 34:1 35:1 36:-1 37:1 40:1 41:1 42:1 45:1 46:1 
64 1:1 2:1 5:1 6:1 7:1 8:-1 9:1 14:1 15:-1 16:1 17:1 18:1 19:1 21:1 24:1 26:1 29:1 30:1 32:1 33:1 34:1 35:1 36:1 37:1 39:1 41:-1 42:1 44:1 46:1 
42.07918127052567 1:1 2:1 5:1 6:1 7:1 8:-1 9:1 14:1 15:-1 16:1 17:1 18:-1 19:1 21:1 25:1 26:1 29:1 30:1 32:1 33:1 34:1 35:1 36:-1 37:-1 38:1 41:-1 42:1 44:1 46:1 
64 1:1 2:1 5:1 6:1 7:1 8:-1 10:1 12:1 15:1 16:1 17:1 18:1 19:-1 21:1 25:1 26:1 29:1 30:1 32:1 33:1 34:1 35:1 36:-1 37:1 40:1 41:-1 42:1 44:1 46:1 
64 1:1 2:1 5:1 6:1 7:1 8:-1 10:1 14:1 15:-1 16:1 17:1 18:1 19:1 22:1 23:1 26:1 29:1 30:1 32:1 33:1 34:1 35:1 36:-1 37:1 39:1 41:-1 42:1 44:1 46:1 
64 1:1 2:1 5:1 6:1 7:1 8:-1 10:1 12:1 15:-1 16:1 17:1 18:1 19:1 22:1 24:1 26:1 29:1 30:1 32:1 33:1 34:1 35:1 36:1 37:-1 40:1 41:-1 42:1 44:1 46:1 
64 1:-1 2:1 5:1 6:1 7:1 8:-1 10:1 14:1 15:1 16:-1 17:1 18:1 19:1 21:1 23:1 26:1 29:1 30:1 32:1 33:-1 34:-1 35:-1 36:1 37:1 38:1 41:-1 42:1 45:1 46:1 
64 1:1 2:1 5:1 6:1 7:1 8:-1 11:1 14:1 15:-1 16:1 17:1 18:1 19:1 21:1 24:1 26:1 29:1 30:1 32:1 33:1 34:1 35:1 36:1 37:-1 39:1 41:-1 42:1 44:1 46:1 
12.4763938527857 1:-1 2:1 5:-1 6:1 7:-1 8:-1 11:1 14:1 15:-1 16:1 17:1 18:-1 19:-1 21:1 23:1 26:1 29:1 30:-1 31:1 32:1 33:1 34:1 35:1 36:1 37:-1 40:1 41:1 42:-1 45:1 46:1 
64 1:-1 4:1 5:1 6:-1 7:1 8:-1 10:1 12:1 15:-1 16:-1 17:-1 18:1 19:1 22:1 23:1 26:1 29:-1 30:1 32:-1 33:1 34:-1 35:-1 36:1 37:1 40:1 41:-1 42:1 45:1 46:1 
64 1:1 2:1 5:1 6:1 7:1 8:-1 9:1 14:1 15:-1 16:1 17:1 18:1 19:1 21:1 24:1 26:1 29:1 30:1 32:1 33:1 34:1 35:1 36:1 37:1 39:1 41:-1 42:1 44:1 46:1 
64 1:1 4:1 5:1 6:1 7:1 8:-1 10:1 12:1 15:-1 16:1 17:1 18:1 19:1 21:1 25:1 28:1 29:1 30:1 32:1 33:1 34:1 35:1 36:1 37:1 40:1 41:-1 42:1 44:1 46:1 
64 1:1 2:1 5:1 6:1 7:1 8:-1 10:1 12:1 15:-1 16:1 17:1 18:1 19:1 21:1 23:1 26:1 29:1 30:1 32:1 33:1 34:1 35:1 36:1 37:1 38:1 41:-1 42:-1 44:1 46:1 
64 1:1 2:1 5:1 6:1 7:1 8:-1 10:1 12:1 15:-1 16:1 17:1 18:1 19:-1 21:1 24:1 26:1 29:1 30:1 32:1 33:1 34:1 35:1 36:1 37:1 40:1 41:-1 42:1 45:1 46:1 
64 1:1 2:1 5:1 6:1 7:1 8:-1 9:1 14:1 15:1 16:1 17:1 18:1 19:-1 21:1 23:1 26:1 29:1 30:1 32:1 33:1 34:1 35:1 36:1 37:-1 40:1 41:-1 42:1 45:1 46:1 
64 1:1 2:1 5:1 6:1 7:1 8:-1 10:1 14:1 15:1 16:1 17:1 18:1 19:-1 22:1 23:1 26:1 29:1 30:1 32:1 33:1 34:1 35:1 36:-1 37:-1 39:1 41:1 42:-1 45:1 46:1 
64 1:1 2:1 5:1 6:1 7:1 8:-1 10:1 12:1 15:-1 16:1 17:1 18:1 19:1 21:1 25:1 26:1 29:1 30:1 32:1 33:1 34:1 35:1 36:-1 37:1 40:1 41:-1 42:1 44:1 46:1 
64 1:1 2:1 5:1 6:1 7:1 8:-1 11:1 13:1 15:-1 16:1 17:1 18:1 19:1 21:1 23:1 26:1 29:1 30:1 32:1 33:1 34:1 35:1 36:1 37:1 40:1 41:-1 42:1 44:1 46:1 
64 1:-1 2:1 5:1 6:1 7:1 8:-1 10:1 14:1 15:-1 16:1 17:1 18:1 19:1 21:1 23:1 26:1 29:1 30:1 32:1 33:1 34:1 35:1 36:-1 37:1 40:1 41:1 42:1 43:1 46:1 
64 1:1 4:1 5:1 6:1 7:1 8:-1 11:1 12:1 15:-1 16:-1 17:1 18:1 19:1 21:1 24:1 26:1 29:-1 30:1 32:-1 33:1 34:-1 35:1 36:1 37:1 39:1 41:1 42:1 44:1 46:1 
64 1:1 2:1 5:1 6:1 7:1 8:-1 11:1 14:1 15:1 16:1 17:1 18:1 19:1 21:1 23:1 26:1 29:1 30:1 32:1 33:1 34:1 35:1 36:1 37:-1 39:1 41:-1 42:1 45:1 46:1 
64 1:1 2:1 5:1 6:1 7:1 8:-1 11:1 14:1 15:1 16:1 17:1 18:1 19:-1 21:1 23:1 26:1 29:1 30:1 32:1 33:1 34:1 35:1 36:1 37:1 39:1 41:-1 42:1 44:1 46:1 
64 1:1 2:1 5:1 6:1 7:1 8:-1 10:1 12:1 15:1 16:1 17:1 18:1 19:1 21:1 23:1 26:1 29:1 30:1 32:1 33:1 34:1 35:1 36:-1 37:1 40:1 41:-1 42:1 44:1 46:1 
10.26615385058667 1:1 4:1 5:1 6:1 7:1 8:-1 10:1 12:1 15:-1 16:1 17:1 18:1 19:1 21:1 24:1 28:1 29:1 30:1 32:1 33:1 34:1 35:1 36:-1 37:1 40:1 41:-1 42:1 44:1 46:1 
64 1:1 2:1 5:1 6:1 7:1 8:-1 11:1 14:1 15:-1 16:1 17:1 18:1 19:1 21:1 24:1 26:1 29:1 30:1 32:1 33:1 34:1 35:1 36:-1 37:-1 39:1 41:-1 42:1 44:1 46:1 
64 1:1 2:1 5:1 6:1 7:1 8:-1 11:1 14:1 15:1 16:1 17:1 18:1 19:-1 21:1 23:1 26:1 29:1 30:1 31:1 32:1 33:1 34:1 35:1 36:-1 37:1 40:1 41:1 42:1 44:1 46:1 
64 1:1 4:1 5:1 6:1 7:1 8:-1 11:1 12:1 15:-1 16:1 17:1 18:1 19:1 21:1 24:1 26:1 29:1 30:1 32:1 33:1 34:1 35:1 36:-1 37:1 39:1 41:1 42:1 44:1 46:1 
64 1:-1 2:1 5:1 6:1 7:1 8:-1 11:1 12:1 15:1 16:1 17:1 18:1 19:-1 21:1 23:1 26:1 29:1 30:1 32:1 33:1 34:1 35:1 36:1 37:1 38:1 41:-1 42:1 45:1 46:1 
64 1:1 2:1 5:1 6:1 7:1 8:-1 10:1 14:1 15:1 16:1 17:1 18:1 19:-1 22:1 23:1 26:1 29:1 30:1 32:1 33:1 34:1 35:1 36:-1 37:-1 39:1 41:1 42:-1 45:1 46:1 
64 1:1 2:1 5:1 6:1 7:1 8:-1 10:1 12:1 15:1 16:1 17:1 18:1 19:-1 21:1 23:1 26:1 29:1 30:1 32:1 33:1 34:1 35:1 36:1 37:-1 40:1 41:-1 42:1 45:1 46:1 
64 1:1 2:1 5:1 6:1 7:1 8:-1 11:1 12:1 15:1 16:1 17:1 18:1 19:-1 21:1 24:1 26:1 29:1 30:1 32:1 33:1 34:1 35:1 36:-1 37:-1 40:1 41:-1 42:1 45:1 46:1 
10.97827675652165 1:-1 2:1 5:1 6:1 7:1 8:-1 9:1 14:1 15:1 16:1 17:1 18:1 19:-1 22:1 23:1 26:1 29:1 30:1 32:1 33:1 34:1 35:1 36:1 37:1 38:1 41:-1 42:1 45:1 46:1 
64 1:1 2:1 5:1 6:1 7:1 8:-1 10:1 14:1 15:-1 16:1 17:1 18:1 19:1 21:1 23:1 26:1 29:1 30:1 32:1 33:1 34:1 35:1 36:-1 37:-1 40:1 41:-1 42:1 43:1 46:1 
64 1:-1 2:1 5:-1 6:1 7:-1 8:-1 9:1 14:1 15:1 16:1 17:1 18:-1 19:-1 21:1 25:1 26:1 29:1 30:1 31:1 32:1 33:1 34:1 35:1 36:1 37:-1 40:1 41:-1 42:1 45:1 46:1 
64 1:-1 2:1 5:1 6:-1 7:1 8:-1 11:1 14:1 15:1 16:-1 17:-1 18:1 19:-1 22:1 24:1 26:1 29:-1 30:1 32:-1 33:1 34:-1 35:-1 36:-1 37:1 39:1 41:-1 42:-1 45:1 46:1 
64 1:1 2:1 5:1 6:1 7:1 8:-1 11:1 12:1 15:1 16:1 17:1 18:1 19:1 21:1 24:1 26:1 29:1 30:1 32:1 33:1 34:1 35:1 36:1 37:-1 38:1 41:1 42:1 45:1 46:1 
64 1:1 2:1 5:1 6:1 7:1 8:-1 9:1 14:1 15:-1 16:1 17:1 18:1 19:1 21:1 24:1 26:1 29:1 30:1 32:1 33:1 34:1 35:1 36:-1 37:1 39:1 41:-1 42:1 44:1 46:1 
64 1:-1 2:1 5:-1 6:1 7:-1 8:-1 11:1 14:1 15:-1 16:1 17:1 18:-1 19:1 21:1 23:1 27:1 29:1 30:1 31:1 32:1 33:1 34:1 35:1 36:1 37:-1 40:1 41:-1 42:-1 43:1 46:1 
64 1:1 2:1 5:1 6:1 7:1 8:-1 9:1 14:1 15:-1 16:1 17:1 18:1 19:1 21:1 23:1 26:1 29:1 30:1 32:1 33:1 34:1 35:1 36:1 37:1 39:1 41:-1 42:1 45:1 46:1 
64 1:-1 2:1 5:1 6:1 7:1 8:-1 9:1 14:1 15:-1 16:1 17:1 18:1 19:-1 21:1 23:1 26:1 29:1 30:1 32:1 33:1 34:1 35:1 36:1 37:1 40:1 41:-1 42:1 44:1 46:1 
64 1:-1 2:1 5:1 6:1 7:1 8:-1 11:1 12:1 15:-1 16:1 17:1 18:1 19:1 21:1 25:1 26:1 29:1 30:1 32:1 33:1 34:1 35:1 36:-1 37:1 38:1 41:1 42:1 45:1 46:1 
64 1:1 2:1 5:1 6:1 7:1 8:-1 11:1 12:1 15:-1 16:1 17:1 18:1 19:1 21:1 25:1 26:1 29:1 30:1 32:1 33:1 34:1 35:1 36:1 37:-1 38:1 41:-1 42:1 45:1 46:1 
64 1:1 2:1 5:1 6:1 7:1 8:-1 9:1 14:1 15:-1 16:1 17:1 18:1 19:1 21:1 23:1 26:1 29:1 30:1 32:1 33:1 34:1 35:1 36:1 37:-1 39:1 41:-1 42:1 45:1 46:1 
64 1:-1 4:1 5:1 6:1 7:1 8:-1 10:1 14:1 15:-1 16:-1 17:1 18:1 19:1 21:1 24:1 26:1 29:1 30:1 32:-1 33:1 34:-1 35:-1 36:1 37:1 40:1 41:1 42:-1 44:1 46:1 
64 1:-1 2:1 5:1 6:1 7:1 8:-1 11:1 12:1 15:-1 16:1 17:1 18:1 19:1 21:1 24:1 26:1 29:1 30:1 32:1 33:1 34:-1 35:1 36:-1 37:1 39:1 41:1 42:1 45:1 46:1 
64 1:-1 2:1 5:1 6:1 7:1 8:-1 9:1 14:1 15:-1 16:1 17:1 18:1 19:1 21:1 24:1 26:1 29:1 30:1 31:1 32:1 33:1 34:1 35:1 36:-1 37:1 39:1 41:1 42:1 45:1 46:1 
64 1:1 4:1 5:1 6:-1 7:1 8:-1 9:1 12:1 15:-1 16:1 17:1 18:1 19:1 21:1 25:1 28:1 29:1 30:1 32:1 33:1 34:1 35:1 36:1 37:1 40:1 41:-1 42:1 44:1 46:1 
64 1:1 2:1 5:1 6:1 7:1 8:-1 11:1 12:1 15:-1 16:1 17:1 18:1 19:1 21:1 24:1 26:1 29:1 30:1 32:1 33:1 34:1 35:1 36:-1 37:1 39:1 41:-1 42:1 44:1 46:1 
51.03356770565109 1:-1 2:1 5:-1 6:1 7:-1 8:-1 11:1 14:1 15:-1 16:1 17:1 18:-1 19:-1 21:1 23:1 26:1 29:1 30:-1 31:1 32:1 33:1 34:1 35:1 36:1 37:-1 40:1 41:1 42:-1 45:1 46:1 
64 1:-1 2:1 5:1 6:1 7:1 8:-1 9:1 12:1 15:-1 16:1 17:1 18:1 19:-1 22:1 25:1 26:1 29:1 30:1 32:1 33:1 34:1 35:1 36:-1 37:1 38:1 41:-1 42:1 45:1 46:1 
64 1:1 2:1 5:1 6:1 7:1 8:-1 9:1 12:1 15:-1 16:1 17:1 18:1 19:1 21:1 24:1 26:1 29:1 30:1 32:1 33:1 34:1 35:1 36:-1 37:1 40:1 41:-1 42:1 44:1 46:1 
64 1:1 4:1 5:1 6:-1 7:1 8:-1 11:1 13:1 15:-1 16:1 17:1 18:1 19:1 21:1 24:1 26:1 29:1 30:1 32:1 33:1 34:1 35:1 36:1 37:1 40:1 41:-1 42:1 43:1 46:1 
64 1:1 2:1 5:1 6:1 7:1 8:-1 11:1 14:1 15:-1 16:1 17:1 18:1 19:1 21:1 23:1 26:1 29:1 30:1 32:1 33:1 34:1 35:1 36:1 37:1 39:1 41:-1 42:1 44:1 46:1 
64 1:1 2:1 5:1 6:1 7:1 8:-1 11:1 14:1 15:1 16:1 17:1 18:1 19:-1 21:1 23:1 26:1 29:1 30:1 32:1 33:1 34:1 35:1 36:1 37:1 40:1 41:1 42:-1 44:1 46:1 
64 1:1 2:1 5:1 6:1 7:1 8:-1 10:1 14:1 15:1 16:1 17:1 18:1 19:-1 21:1 23:1 26:1 29:1 30:1 32:1 33:1 34:1 35:1 36:-1 37:-1 40:1 41:1 42:1 45:1 46:1 
64 1:1 2:1 5:1 6:1 7:1 8:-1 11:1 12:1 15:1 16:1 17:1 18:1 19:1 21:1 24:1 26:1 29:1 30:1 32:1 33:1 34:1 35:1 36:1 37:-1 38:1 41:1 42:1 45:1 46:1 
64 1:-1 2:1 5:1 6:1 7:1 8:-1 10:1 12:1 15:-1 16:1 17:1 18:1 19:-1 21:1 24:1 27:1 29:1 30:1 32:1 33:1 34:1 35:1 36:-1 37:1 40:1 41:1 42:1 45:1 46:1 
64 1:-1 2:1 5:1 6:1 7:1 8:-1 10:1 12:1 15:-1 16:1 17:1 18:1 19:1 21:1 24:1 26:1 29:1 30:1 32:1 33:1 34:-1 35:1 36:1 37:1 40:1 41:-1 42:1 45:1 46:1 
64 1:-1 2:1 5:1 6:1 7:1 8:-1 9:1 12:1 15:-1 16:1 17:1 18:1 19:1 21:1 25:1 26:1 29:1 30:1 32:1 33:1 34:1 35:1 36:1 37:1 40:1 41:-1 42:1 45:1 46:1 
64 1:1 2:1 5:1 6:1 7:1 8:-1 10:1 12:1 15:-1 16:1 17:1 18:1 19:-1 22:1 25:1 26:1 29:1 30:1 32:1 33:1 34:1 35:1 36:-1 37:-1 38:1 41:-1 42:1 45:1 46:1 
64 1:-1 2:1 5:-1 6:1 7:-1 8:-1 9:1 14:1 15:1 16:1 17:1 18:-1 19:-1 21:1 25:1 26:1 29:1 30:-1 31:1 32:1 33:1 34:1 35:1 36:1 37:-1 40:1 41:-1 42:1 44:1 46:1 
64 1:1 2:1 5:1 6:1 7:1 8:-1 9:1 14:1 15:-1 16:1 17:1 18:1 19:1 21:1 24:1 26:1 29:1 30:1 32:1 33:1 34:1 35:1 36:1 37:-1 39:1 41:-1 42:1 45:1 46:1 
64 1:-1 2:1 5:1 6:1 7:1 8:-1 9:1 14:1 15:-1 16:1 17:1 18:1 19:1 21:1 25:1 26:1 29:1 30:1 32:1 33:1 34:1 35:1 36:-1 37:1 40:1 41:-1 42:1 44:1 46:1 
64 1:1 2:1 5:1 6:1 7:1 8:-1 11:1 14:1 15:1 16:1 17:1 18:1 19:-1 21:1 23:1 26:1 29:1 30:1 32:1 33:1 34:1 35:1 36:1 37:1 40:1 41:-1 42:-1 44:1 46:1 
20.45019547802482 1:-1 2:1 5:1 6:1 7:1 8:-1 9:1 14:1 15:1 16:1 17:1 18:1 19:-1 22:1 23:1 26:1 29:1 30:1 32:1 33:1 34:1 35:1 36:1 37:1 38:1 41:-1 42:1 45:1 46:1 
64 1:1 2:1 5:1 6:1 7:1 8:-1 11:1 14:1 15:-1 16:-1 17:-1 18:1 19:1 21:1 23:1 26:1 29:-1 30:1 32:-1 33:1 34:-1 35:1 36:-1 37:-1 39:1 41:-1 42:1 44:1 46:-1 
64 1:1 2:1 5:1 6:1 7:1 8:-1 11:1 14:1 15:1 16:1 17:1 18:1 19:1 21:1 23:1 26:1 29:1 30:1 32:1 33:1 34:1 35:1 36:1 37:-1 39:1 41:-1 42:1 45:1 46:1 
64 1:-1 2:1 5:1 6:1 7:1 8:-1 11:1 14:1 15:1 16:1 17:1 18:1 19:-1 21:1 24:1 28:1 29:1 30:1 31:1 32:1 33:1 34:1 35:1 36:-1 37:1 39:1 41:1 42:1 44:1 46:1 
64 1:-1 2:1 5:1 6:1 7:1 8:-1 9:1 14:1 15:1 16:1 17:1 18:1 19:-1 21:1 24:1 28:1 29:1 30:1 32:1 33:1 34:1 35:1 36:1 37:1 40:1 41:-1 42:1 44:1 46:-1 
29.01537433480358 1:1 2:1 5:1 6:1 7:1 8:-1 9:1 14:1 15:-1 16:-1 17:-1 18:1 19:1 21:1 23:1 26:1 29:-1 30:1 32:-1 33:1 34:-1 35:1 36:-1 37:-1 40:1 41:1 42:1 45:1 46:-1 
64 1:1 2:1 5:1 6:1 7:1 8:-1 9:1 12:1 15:1 16:1 17:1 18:1 19:-1 21:1 25:1 27:1 29:1 30:1 32:1 33:1 34:1 35:1 36:-1 37:1 40:1 41:-1 42:1 44:1 46:1 
64 1:1 2:1 5:1 6:1 7:1 8:-1 10:1 12:1 15:1 16:1 17:1 18:1 19:-1 21:1 23:1 26:1 29:1 30:1 32:1 33:1 34:1 35:1 36:1 37:-1 40:1 41:-1 42:1 45:1 46:1 
64 1:1 2:1 5:1 6:1 7:1 8:-1 10:1 14:1 15:1 16:1 17:1 18:1 19:-1 21:1 23:1 26:1 29:1 30:1 32:1 33:1 34:1 35:1 36:1 37:1 38:1 41:-1 42:1 44:1 46:1 
64 1:1 2:1 5:1 6:1 7:1 8:-1 10:1 14:1 15:1 16:1 17:1 18:1 19:-1 21:1 23:1 26:1 29:1 30:1 32:1 33:1 34:1 35:1 36:1 37:1 40:1 41:-1 42:1 44:1 46:1 
64 1:-1 4:1 5:1 6:1 7:1 8:-1 10:1 14:1 15:-1 16:1 17:1 18:1 19:1 21:1 24:1 26:1 29:1 30:1 32:1 33:1 34:1 35:1 36:1 37:1 38:1 41:1 42:1 44:1 46:1 
64 1:1 2:1 5:1 6:1 7:1 8:-1 11:1 12:1 15:-1 16:1 17:1 18:1 19:1 21:1 24:1 26:1 29:1 30:1 32:1 33:1 34:-1 35:1 36:1 37:-1 39:1 41:-1 42:1 45:1 46:1 
64 1:1 2:1 5:1 6:1 7:1 8:-1 10:1 14:1 15:-1 16:1 17:1 18:1 19:1 22:1 23:1 26:1 29:1 30:1 32:1 33:1 34:1 35:1 36:-1 37:1 39:1 41:-1 42:1 44:1 46:1 
64 1:1 2:1 5:1 6:1 7:1 8:-1 11:1 14:1 15:1 16:1 17:1 18:1 19:-1 21:1 24:1 26:1 29:1 30:1 32:1 33:1 34:1 35:1 36:1 37:-1 39:1 41:1 42:-1 44:1 46:1 
64 1:1 2:1 5:1 6:1 7:1 8:-1 9:1 12:1 15:-1 16:1 17:1 18:1 19:1 21:1 23:1 26:1 29:1 30:1 32:1 33:1 34:1 35:1 36:-1 37:1 39:1 41:-1 42:-1 44:1 46:1 
64 1:-1 2:1 5:1 6:1 7:1 8:-1 11:1 12:1 15:-1 16:1 17:1 18:1 19:-1 21:1 23:1 26:1 29:1 30:1 32:1 33:1 34:1 35:1 36:-1 37:1 39:1 41:-1 42:1 45:1 46:1 
64 1:-1 2:1 5:1 6:1 7:1 8:-1 10:1 14:1 15:-1 16:1 17:1 18:1 19:1 21:1 24:1 26:1 29:1 30:1 32:1 33:1 34:1 35:1 36:-1 37:1 40:1 41:-1 42:1 44:1 46:1 
64 1:-1 2:1 5:1 6:-1 7:1 8:-1 10:1 12:1 15:1 16:1 17:1 18:1 19:-1 21:1 23:1 26:1 29:1 30:1 32:1 33:1 34:1 35:1 36:-1 37:1 40:1 41:1 42:1 45:1 46:1 
64 1:1 2:1 5:1 6:1 7:1 8:-1 10:1 14:1 15:1 16:1 17:1 18:1 19:-1 21:1 23:1 26:1 29:1 30:1 32:1 33:1 34:1 35:1 36:1 37:-1 40:1 41:-1 42:1 45:1 46:1 
64 1:1 2:1 5:1 6:1 7:1 8:-1 11:1 12:1 15:-1 16:1 17:1 18:1 19:1 21:1 24:1 26:1 29:1 30:1 32:1 33:1 34:1 35:1 36:1 37:1 39:1 41:-1 42:1 44:1 46:1 
64 1:-1 4:1 5:1 6:1 7:1 8:-1 10:1 14:1 15:-1 16:-1 17:-1 18:1 19:1 21:1 23:1 26:1 29:-1 30:1 32:-1 33:1 34:-1 35:-1 36:1 37:1 40:1 41:-1 42:1 43:1 46:1 
64 1:1 2:1 5:1 6:1 7:1 8:-1 9:1 12:1 15:-1 16:-1 17:-1 18:1 19:1 21:1 25:1 26:1 29:-1 30:1 32:-1 33:1 34:-1 35:-1 36:1 37:1 39:1 41:-1 42:1 45:1 46:-1 
64 1:1 2:1 5:1 6:1 7:1 8:-1 10:1 14:1 15:1 16:1 17:1 18:1 19:-1 21:1 24:1 26:1 29:1 30:1 32:1 33:1 34:1 35:1 36:-1 37:-1 39:1 41:1 42:-1 45:1 46:1 
64 1:1 2:1 5:1 6:1 7:1 8:-1 9:1 12:1 15:1 16:1 17:1 18:-1 19:-1 21:1 23:1 26:1 29:1 30:1 32:1 33:1 34:1 35:1 36:-1 37:1 39:1 41:-1 42:1 45:1 46:1 
64 1:-1 2:1 5:1 6:1 7:1 8:-1 10:1 12:1 15:1 16:1 17:1 18:1 19:-1 21:1 24:1 26:1 29:1 30:1 32:1 33:1 34:1 35:1 36:-1 37:1 40:1 41:-1 42:1 45:1 46:1 
64 1:-1 2:1 5:1 6:1 7:1 8:-1 11:1 14:1 15:1 16:1 17:1 18:1 19:-1 21:1 24:1 27:1 29:1 30:1 32:1 33:1 34:1 35:1 36:-1 37:1 39:1 41:-1 42:-1 45:1 46:1 
64 1:1 2:1 5:1 6:1 7:1 8:-1 10:1 12:1 15:-1 16:1 17:1 18:1 19:1 21:1 24:1 26:1 29:1 30:1 32:1 33:1 34:1 35:1 36:1 37:1 40:1 41:-1 42:1 44:1 46:1 
64 1:-1 2:1 5:1 6:1 7:1 8:-1 10:1 12:1 15:-1 16:1 17:1 18:1 19:1 22:1 24:1 28:1 29:1 30:1 32:1 33:1 34:1 35:1 36:-1 37:1 40:1 41:1 42:1 44:1 46:1 
64 1:1 2:1 5:1 6:1 7:1 8:-1 10:1 12:1 15:-1 16:1 17:1 18:1 19:1 22:1 24:1 26:1 29:1 30:1 32:1 33:1 34:1 35:1 36:1 37:-1 40:1 41:1 42:1 44:1 46:1 
0.7971136114405861 1:-1 2:1 5:1 6:1 7:1 8:1 11:1 14:1 15:-1 16:1 17:1 18:1 19:1 20:1 23:1 26:1 29:1 30:1 32:1 33:1 34:1 35:1 36:-1 37:-1 40:1 41:-1 42:1 45:1 46:1 
64 1:1 2:1 5:1 6:1 7:1 8:-1 11:1 14:1 15:-1 16:1 17:1 18:1 19:1 21:1 23:1 26:1 29:1 30:1 32:1 33:1 34:1 35:1 36:-1 37:1 39:1 41:-1 42:1 44:1 46:1 
64 1:1 2:1 5:1 6:-1 7:1 8:-1 9:1 14:1 15:1 16:1 17:1 18:1 19:-1 21:1 24:1 26:1 29:1 30:1 32:1 33:1 34:1 35:1 36:-1 37:1 38:1 41:-1 42:1 44:1 46:1 
64 1:1 2:1 5:1 6:1 7:1 8:-1 9:1 12:1 15:1 16:1 17:1 18:1 19:-1 21:1 24:1 26:1 29:1 30:1 32:1 33:1 34:1 35:1 36:-1 37:1 40:1 41:-1 42:1 44:1 46:1 
64 1:1 2:1 5:1 6:1 7:1 8:-1 11:1 14:1 15:-1 16:1 17:1 18:1 19:1 21:1 23:1 26:1 29:1 30:1 32:1 33:1 34:1 35:1 36:-1 37:1 39:1 41:-1 42:1 44:1 46:1 
64 1:1 2:1 5:1 6:1 7:1 8:-1 10:1 12:1 15:1 16:1 17:1 18:1 19:-1 21:1 25:1 26:1 29:1 30:1 32:1 33:1 34:1 35:1 36:-1 37:1 40:1 41:-1 42:1 44:1 46:1 
64 1:-1 2:1 5:-1 6:1 7:-1 8:-1 9:1 14:1 15:1 16:1 17:1 18:-1 19:-1 21:1 25:1 26:1 29:1 30:1 31:1 32:1 33:1 34:1 35:1 36:1 37:-1 40:1 41:-1 42:1 45:1 46:1 
64 1:1 2:1 5:1 6:1 7:1 8:-1 9:1 12:1 15:1 16:1 17:1 18:1 19:-1 21:1 23:1 26:1 29:1 30:1 32:1 33:1 34:1 35:1 36:1 37:-1 40:1 41:-1 42:1 45:1 46:1 
64 1:-1 2:1 5:1 6:1 7:1 8:-1 9:1 14:1 15:1 16:1 17:1 18:1 19:-1 21:1 25:1 26:1 29:-1 30:1 32:1 33:1 34:1 35:1 36:1 37:1 39:1 41:-1 42:1 45:1 46:1 
64 1:-1 4:1 5:1 6:-1 7:1 8:-1 11:1 12:1 15:-1 16:1 17:1 18:1 19:1 21:1 24:1 27:1 29:1 30:1 32:1 33:1 34:1 35:1 36:-1 37:1 39:1 41:1 42:1 44:1 46:1 
64 1:1 2:1 5:1 6:1 7:1 8:-1 10:1 12:1 15:-1 16:1 17:1 18:1 19:1 21:1 25:1 26:1 29:1 30:1 32:1 33:1 34:1 35:1 36:-1 37:1 40:1 41:-1 42:1 44:1 46:1 
64 1:-1 2:1 5:1 6:1 7:1 8:-1 11:1 12:1 15:1 16:1 17:1 18:1 19:-1 21:1 24:1 26:1 29:1 30:1 32:1 33:1 34:1 35:1 36:-1 37:1 40:1 41:-1 42:1 45:1 46:1 
64 1:1 2:1 5:1 6:1 7:1 8:-1 11:1 12:1 15:1 16:1 17:1 18:1 19:-1 21:1 25:1 27:1 29:1 30:1 32:1 33:1 34:1 35:1 36:-1 37:1 39:1 41:-1 42:1 44:1 46:1 
64 1:1 2:1 5:1 6:1 7:1 8:-1 11:1 14:1 15:1 16:1 17:1 18:1 19:-1 21:1 23:1 26:1 29:1 30:1 32:1 33:1 34:1 35:1 36:1 37:1 40:1 41:1 42:-1 44:1 46:1 
64 1:1 2:1 5:1 6:1 7:1 8:-1 11:1 14:1 15:1 16:1 17:1 18:1 19:-1 21:1 25:1 26:1 29:1 30:1 32:1 33:1 34:1 35:1 36:-1 37:1 39:1 41:-1 42:1 44:1 46:1 
64 1:1 2:1 5:1 6:1 7:1 8:-1 10:1 12:1 15:-1 16:1 17:1 18:1 19:1 22:1 25:1 26:1 29:1 30:1 32:1 33:1 34:1 35:1 36:1 37:1 40:1 41:1 42:1 44:1 46:1 
64 1:1 2:1 5:1 6:1 7:1 8:-1 11:1 12:1 15:-1 16:1 17:1 18:1 19:1 22:1 24:1 26:1 29:1 30:1 32:1 33:1 34:1 35:1 36:1 37:1 39:1 41:-1 42:1 44:1 46:1 
64 1:1 4:1 5:1 6:1 7:1 8:-1 10:1 12:1 15:-1 16:1 17:1 18:1 19:1 21:1 25:1 28:1 29:1 30:1 32:1 33:1 34:1 35:1 36:1 37:1 40:1 41:-1 42:1 44:1 46:1 
64 1:1 2:1 5:1 6:1 7:1 8:-1 9:1 14:1 15:-1 16:1 17:1 18:1 19:1 21:1 24:1 26:1 29:1 30:1 32:1 33:1 34:1 35:1 36:-1 37:1 39:1 41:-1 42:1 44:1 46:1 
62.17297499737836 1:1 2:1 5:1 6:1 7:1 8:-1 9:1 14:1 15:-1 16:-1 17:-1 18:1 19:1 21:1 23:1 26:1 29:-1 30:1 32:-1 33:1 34:-1 35:1 36:-1 37:-1 40:1 41:1 42:1 45:1 46:-1 
64 1:1 2:1 5:1 6:1 7:1 8:-1 9:1 14:1 15:-1 16:1 17:1 18:1 19:-1 21:1 23:1 26:1 29:-1 30:1 32:1 33:1 34:1 35:1 36:1 37:1 38:1 41:-1 42:1 44:1 46:1 
34.07880029312084 1:1 2:1 5:1 6:1 7:1 8:-1 9:1 14:1 15:1 16:1 17:1 18:-1 19:-1 21:1 25:1 26:1 29:-1 30:1 32:1 33:1 34:1 35:1 36:1 37:-1 40:1 41:-1 42:1 44:1 46:1 
4.979731117678482 1:1 2:1 5:1 6:1 7:1 8:-1 9:1 14:1 15:-1 16:1 17:1 18:1 19:1 21:1 24:1 26:1 29:1 30:1 32:1 33:1 34:1 35:1 36:-1 37:1 40:1 41:-1 42:-1 44:1 46:1 
64 1:1 4:1 5:1 6:1 7:1 8:-1 10:1 12:1 15:-1 16:1 17:1 18:1 19:1 21:1 24:1 28:1 29:1 30:1 32:1 33:1 34:1 35:1 36:-1 37:-1 40:1 41:-1 42:1 44:1 46:1 
64 1:-1 2:1 5:1 6:1 7:1 8:-1 11:1 14:1 15:1 16:1 17:1 18:1 19:-1 21:1 23:1 28:1 29:1 30:1 32:1 33:1 34:1 35:1 36:-1 37:1 39:1 41:-1 42:1 45:1 46:1 
64 1:-1 2:1 5:1 6:-1 7:1 8:-1 9:1 14:1 15:-1 16:1 17:1 18:1 19:-1 21:1 24:1 26:1 29:1 30:1 32:1 33:1 34:1 35:1 36:-1 37:-1 38:1 41:-1 42:1 44:1 46:1 
64 1:-1 2:1 5:1 6:1 7:1 8:-1 11:1 14:1 15:1 16:1 17:1 18:1 19:-1 21:1 23:1 27:1 29:1 30:1 32:1 33:1 34:1 35:1 36:1 37:1 39:1 41:-1 42:1 45:1 46:1 
64 1:1 2:1 5:1 6:1 7:1 8:-1 10:1 14:1 15:-1 16:1 17:1 18:1 19:1 21:1 24:1 26:1 29:1 30:1 32:1 33:1 34:1 35:1 36:1 37:1 39:1 41:-1 42:1 44:1 46:1 
64 1:1 2:1 5:1 6:1 7:1 8:-1 10:1 12:1 15:-1 16:1 17:1 18:1 19:-1 21:1 24:1 26:1 29:1 30:1 32:1 33:1 34:1 35:1 36:1 37:-1 40:1 41:-1 42:1 45:1 46:1 
64 1:1 2:1 5:1 6:1 7:1 8:-1 9:1 14:1 15:1 16:1 17:1 18:1 19:-1 21:1 23:1 26:1 29:1 30:1 32:1 33:1 34:1 35:1 36:1 37:1 40:1 41:-1 42:1 44:1 46:1 
64 1:1 2:1 5:1 6:1 7:1 8:-1 10:1 14:1 15:-1 16:1 17:1 18:1 19:1 21:1 24:1 26:1 29:1 30:1 32:1 33:1 34:1 35:1 36:1 37:1 39:1 41:-1 42:1 44:1 46:1 
8.411116768448494 1:1 2:1 5:1 6:1 7:1 8:-1 10:1 14:1 15:1 16:-1 17:1 18:1 19:-1 21:1 23:1 26:1 29:-1 30:1 32:-1 33:1 34:-1 35:1 36:-1 37:-1 40:1 41:-1 42:1 45:1 46:1 
64 1:1 2:1 5:1 6:1 7:1 8:-1 9:1 14:1 15:-1 16:1 17:1 18:1 19:1 21:1 23:1 26:1 29:1 30:1 32:1 33:1 34:1 35:1 36:-1 37:1 40:1 41:-1 42:1 44:1 46:1 
19.37327754321734 1:-1 2:1 5:-1 6:1 7:-1 8:-1 10:1 14:1 15:-1 16:1 17:1 18:-1 19:1 21:1 23:1 26:1 29:1 30:-1 31:1 32:1 33:1 34:1 35:1 36:-1 37:-1 40:1 41:-1 42:1 45:1 46:-1 
64 1:-1 2:1 5:-1 6:1 7:-1 8:-1 11:1 14:1 15:-1 16:1 17:1 18:-1 19:1 21:1 23:1 26:1 29:1 30:1 31:1 32:1 33:1 34:1 35:1 36:1 37:-1 40:1 41:-1 42:-1 43:1 46:1 
64 1:1 2:1 5:1 6:1 7:1 8:-1 9:1 14:1 15:1 16:1 17:1 18:1 19:-1 21:1 23:1 26:1 29:1 30:-1 32:1 33:1 34:1 35:1 36:-1 37:1 40:1 41:1 42:1 44:1 46:1 
64 1:-1 2:1 5:-1 6:-1 7:-1 8:-1 11:1 14:1 15:-1 16:1 17:1 18:-1 19:1 21:1 23:1 26:1 29:1 30:-1 31:1 32:1 33:1 34:1 35:1 36:1 37:-1 39:1 41:-1 42:1 45:1 46:1 
64 1:1 2:1 5:1 6:1 7:1 8:-1 9:1 12:1 15:-1 16:1 17:1 18:1 19:1 21:1 25:1 26:1 29:1 30:1 32:1 33:1 34:1 35:1 36:-1 37:1 40:1 41:-1 42:1 44:1 46:1 
64 1:1 2:1 5:1 6:1 7:1 8:-1 11:1 12:1 15:1 16:1 17:1 18:1 19:-1 21:1 23:1 26:1 29:1 30:1 32:1 33:1 34:1 35:1 36:1 37:1 38:1 41:-1 42:1 44:1 46:1 
64 1:1 2:1 5:1 6:1 7:1 8:-1 9:1 14:1 15:1 16:1 17:1 18:1 19:1 21:1 23:1 26:1 29:1 30:1 32:1 33:1 34:1 35:1 36:1 37:-1 40:1 41:-1 42:1 45:1 46:1 
64 1:1 2:1 5:1 6:1 7:1 8:-1 9:1 14:1 15:1 16:1 17:1 18:1 19:-1 21:1 24:1 26:1 29:1 30:1 32:1 33:1 34:1 35:1 36:-1 37:1 38:1 41:-1 42:1 44:1 46:1 
64 1:-1 2:1 5:1 6:1 7:1 8:-1 11:1 12:1 15:-1 16:1 17:1 18:1 19:1 22:1 24:1 26:1 29:1 30:1 32:1 33:1 34:1 35:1 36:1 37:1 39:1 41:-1 42:1 44:1 46:1 
64 1:-1 2:1 5:1 6:1 7:1 8:-1 10:1 14:1 15:1 16:1 17:1 18:1 19:-1 21:1 24:1 28:1 29:1 30:1 32:1 33:1 34:1 35:1 36:-1 37:1 39:1 41:-1 42:1 45:1 46:1 
64 1:-1 2:1 5:1 6:1 7:1 8:-1 9:1 14:1 15:-1 16:1 17:1 18:1 19:-1 22:1 23:1 28:1 29:1 30:1 31:1 32:1 33:1 34:1 35:1 36:-1 37:1 39:1 41:1 42:1 45:1 46:1 
64 1:1 3:1 5:1 6:-1 7:1 8:-1 9:1 14:1 15:-1 16:1 17:1 18:-1 19:-1 21:1 23:1 27:1 29:-1 30:-1 32:1 33:1 34:1 35:1 36:-1 37:1 39:1 41:-1 42:-1 44:1 46:1 
64 1:1 4:1 5:1 6:1 7:1 8:-1 11:1 12:1 15:-1 16:1 17:1 18:1 19:1 21:1 25:1 26:1 29:1 30:1 32:1 33:1 34:1 35:1 36:1 37:1 39:1 41:1 42:1 44:1 46:1 
64 1:1 2:1 5:1 6:1 7:1 8:-1 10:1 14:1 15:-1 16:1 17:1 18:1 19:-1 21:1 24:1 26:1 29:1 30:1 32:1 33:1 34:1 35:1 36:-1 37:1 39:1 41:-1 42:1 44:1 46:1 
64 1:-1 2:1 5:1 6:1 7:1 8:-1 11:1 14:1 15:-1 16:1 17:1 18:1 19:1 21:1 23:1 26:1 29:1 30:1 32:1 33:1 34:1 35:1 36:-1 37:1 39:1 41:-1 42:1 45:1 46:1 
64 1:-1 2:1 5:1 6:1 7:1 8:-1 9:1 12:1 15:1 16:1 17:1 18:1 19:-1 21:1 24:1 26:1 29:1 30:1 32:1 33:1 34:1 35:1 36:-1 37:1 40:1 41:1 42:1 45:1 46:1 
64 1:-1 2:1 5:1 6:1 7:1 8:-1 11:1 14:1 15:-1 16:1 17:1 18:1 19:-1 21:1 25:1 28:1 29:1 30:1 32:1 33:1 34:1 35:1 36:-1 37:1 39:1 41:-1 42:1 44:1 46:1 
64 1:1 2:1 5:1 6:1 7:1 8:-1 9:1 12:1 15:-1 16:-1 17:-1 18:1 19:1 21:1 23:1 26:1 29:-1 30:1 32:1 33:1 34:-1 35:1 36:1 37:1 40:1 41:-1 42:1 44:1 46:1 
64 1:1 2:1 5:1 6:1 7:1 8:-1 9:1 12:1 15:1 16:1 17:1 18:1 19:-1 21:1 23:1 26:1 29:1 30:1 32:1 33:1 34:1 35:1 36:1 37:-1 40:1 41:-1 42:1 45:1 46:1 
64 1:-1 4:1 5:1 6:-1 7:1 8:-1 9:1 12:1 15:-1 16:1 17:1 18:1 19:1 21:1 24:1 27:1 29:1 30:1 32:1 33:1 34:1 35:1 36:1 37:1 40:1 41:-1 42:1 44:1 46:1 
64 1:1 2:1 5:1 6:1 7:1 8:-1 9:1 14:1 15:-1 16:1 17:1 18:1 19:1 20:1 24:1 26:1 29:1 30:1 32:1 33:1 34:1 35:1 36:1 37:1 40:1 41:-1 42:1 43:1 46:1 
64 1:-1 2:1 5:-1 6:1 7:-1 8:-1 9:1 14:1 15:1 16:1 17:1 18:-1 19:1 21:1 25:1 26:1 29:1 30:-1 31:1 32:1 33:1 34:1 35:1 36:1 37:-1 40:1 41:1 42:-1 45:1 46:1 
64 1:1 2:1 5:1 6:1 7:1 8:-1 9:1 14:1 15:1 16:1 17:1 18:1 19:-1 21:1 24:1 26:1 29:1 30:1 32:1 33:1 34:1 35:1 36:1 37:1 40:1 41:-1 42:-1 44:1 46:1 
64 1:1 2:1 5:1 6:1 7:1 8:-1 9:1 14:1 15:-1 16:1 17:1 18:1 19:1 21:1 23:1 26:1 29:1 30:1 32:1 33:1 34:1 35:1 36:1 37:-1 39:1 41:-1 42:1 45:1 46:1 
64 1:1 2:1 5:1 6:1 7:1 8:-1 10:1 12:1 15:1 16:1 17:1 18:1 19:1 21:1 23:1 26:1 29:1 30:1 32:1 33:1 34:1 35:1 36:-1 37:1 40:1 41:-1 42:1 44:1 46:1 
64 1:1 2:1 5:1 6:1 7:1 8:-1 11:1 12:1 15:-1 16:1 17:1 18:1 19:1 22:1 24:1 26:1 29:1 30:1 32:1 33:1 34:1 35:1 36:-1 37:1 39:1 41:-1 42:1 44:1 46:1 
64 1:1 4:1 5:1 6:1 7:1 8:-1 10:1 12:1 15:-1 16:1 17:1 18:1 19:1 21:1 25:1 28:1 29:1 30:1 32:1 33:1 34:1 35:1 36:1 37:1 40:1 41:-1 42:1 44:1 46:1 
64 1:-1 4:1 5:-1 6:1 7:-1 8:-1 11:1 14:1 15:-1 16:1 17:1 18:-1 19:1 21:1 23:1 26:1 29:1 30:-1 32:1 33:1 34:1 35:1 36:1 37:-1 39:1 41:-1 42:-1 45:1 46:1 
64 1:1 2:1 5:1 6:1 7:1 8:-1 11:1 12:1 15:-1 16:1 17:1 18:1 19:1 21:1 24:1 26:1 29:1 30:1 32:1 33:1 34:1 35:1 36:1 37:1 39:1 41:-1 42:1 44:1 46:1 
64 1:1 2:1 5:1 6:1 7:1 8:-1 9:1 14:1 15:-1 16:1 17:1 18:1 19:1 21:1 23:1 26:1 29:1 30:1 32:1 33:1 34:1 35:1 36:1 37:1 40:1 41:-1 42:1 44:1 46:-1 
64 1:1 2:1 5:1 6:1 7:1 8:-1 9:1 14:1 15:-1 16:1 17:1 18:1 19:-1 21:1 24:1 26:1 29:1 30:1 32:1 33:1 34:1 35:1 36:-1 37:1 39:1 41:-1 42:1 44:1 46:1 
64 1:1 2:1 5:1 6:1 7:1 8:-1 9:1 14:1 15:-1 16:1 17:1 18:1 19:1 21:1 24:1 26:1 29:1 30:1 32:1 33:1 34:1 35:1 36:-1 37:1 39:1 41:-1 42:1 44:1 46:1 
64 1:1 2:1 5:1 6:1 7:1 8:-1 10:1 14:1 15:-1 16:-1 17:1 18:1 19:1 21:1 24:1 26:1 29:-1 30:-1 32:-1 33:1 34:-1 35:1 36:-1 37:-1 39:1 41:-1 42:1 43:1 46:-1 
64 1:1 2:1 5:1 6:1 7:1 8:-1 11:1 12:1 15:1 16:1 17:1 18:1 19:1 21:1 24:1 26:1 29:1 30:1 32:1 33:1 34:1 35:1 36:1 37:-1 38:1 41:1 42:1 45:1 46:1 
64 1:1 2:1 5:1 6:1 7:1 8:-1 10:1 12:1 15:1 16:1 17:1 18:1 19:1 21:1 23:1 26:1 29:1 30:1 32:1 33:1 34:1 35:1 36:-1 37:1 40:1 41:-1 42:1 44:1 46:1 
64 1:1 4:1 5:1 6:1 7:1 8:-1 10:1 12:1 15:-1 16:1 17:1 18:1 19:1 21:1 24:1 28:1 29:1 30:1 32:1 33:1 34:1 35:1 36:-1 37:1 40:1 41:-1 42:1 44:1 46:-1 
64 1:1 2:1 5:1 6:1 7:1 8:-1 10:1 12:1 15:1 16:1 17:1 18:1 19:1 21:1 23:1 26:1 29:1 30:1 32:1 33:1 34:1 35:1 36:-1 37:1 40:1 41:-1 42:1 44:1 46:1 
64 1:1 2:1 5:1 6:1 7:1 8:-1 10:1 12:1 15:1 16:1 17:1 18:1 19:-1 21:1 25:1 26:1 29:1 30:1 32:1 33:1 34:1 35:1 36:-1 37:1 40:1 41:-1 42:1 44:1 46:1 
64 1:1 2:1 5:1 6:1 7:1 8:-1 9:1 12:1 15:-1 16:1 17:1 18:1 19:1 21:1 23:1 26:1 29:1 30:1 32:1 33:1 34:1 35:1 36:-1 37:1 39:1 41:-1 42:-1 44:1 46:1 
64 1:-1 4:1 5:-1 6:1 7:-1 8:-1 9:1 14:1 15:-1 16:1 17:1 18:-1 19:1 21:1 23:1 28:1 29:1 30:-1 31:1 32:1 33:1 34:1 35:1 36:1 37:-1 39:1 41:-1 42:1 45:1 46:1 
64 1:1 2:1 5:1 6:1 7:1 8:-1 11:1 13:1 15:-1 16:1 17:1 18:1 19:1 21:1 23:1 26:1 29:1 30:1 32:1 33:1 34:1 35:1 36:-1 37:1 40:1 41:1 42:1 44:1 46:1 
64 1:1 2:1 5:1 6:1 7:1 8:-1 9:1 12:1 15:1 16:1 17:1 18:1 19:-1 21:1 24:1 26:1 29:1 30:1 32:1 33:1 34:1 35:1 36:1 37:-1 40:1 41:-1 42:1 45:1 46:1 
64 1:-1 2:1 5:1 6:-1 7:1 8:-1 11:1 12:1 15:1 16:1 17:1 18:1 19:-1 21:1 23:1 26:1 29:1 30:1 32:1 33:1 34:1 35:1 36:1 37:1 40:1 41:-1 42:1 45:1 46:1 
64 1:1 2:1 5:1 6:1 7:1 8:-1 9:1 12:1 15:-1 16:1 17:1 18:1 19:1 21:1 25:1 26:1 29:1 30:1 32:1 33:1 34:1 35:1 36:1 37:1 40:1 41:-1 42:1 45:1 46:1 
64 1:1 2:1 5:1 6:1 7:1 8:-1 10:1 12:1 15:1 16:1 17:1 18:1 19:-1 21:1 23:1 26:1 29:1 30:1 32:1 33:1 34:1 35:1 36:-1 37:-1 40:1 41:-1 42:1 45:1 46:1 
64 1:1 2:1 5:1 6:1 7:1 8:-1 11:1 12:1 15:-1 16:1 17:1 18:1 19:1 21:1 24:1 26:1 29:1 30:1 32:1 33:1 34:1 35:1 36:-1 37:1 39:1 41:-1 42:1 44:1 46:1 
64 1:1 2:1 5:1 6:-1 7:1 8:-1 9:1 14:1 15:1 16:1 17:1 18:1 19:-1 22:1 25:1 26:1 29:1 30:1 32:1 33:1 34:1 35:1 36:-1 37:1 40:1 41:-1 42:-1 44:1 46:1 
64 1:1 2:1 5:1 6:1 7:1 8:-1 9:1 12:1 15:-1 16:1 17:1 18:1 19:1 21:1 23:1 26:1 29:1 30:1 32:1 33:1 34:1 35:1 36:-1 37:1 39:1 41:-1 42:1 44:1 46:1 
64 1:1 2:1 5:1 6:1 7:1 8:-1 11:1 14:1 15:-1 16:1 17:1 18:1 19:1 21:1 24:1 26:1 29:1 30:1 32:1 33:1 34:1 35:1 36:-1 37:-1 39:1 41:-1 42:-1 45:1 46:1 
11.94792986387977 1:-1 2:1 5:1 6:1 7:1 8:-1 11:1 14:1 15:-1 16:1 17:1 18:1 19:-1 21:1 24:1 27:1 29:1 30:1 32:1 33:1 34:1 35:1 36:-1 37:1 39:1 41:-1 42:1 44:1 46:1 
64 1:1 2:1 5:1 6:1 7:1 8:-1 10:1 12:1 15:-1 16:1 17:1 18:1 19:1 22:1 24:1 26:1 29:1 30:1 32:1 33:1 34:1 35:1 36:-1 37:1 40:1 41:-1 42:1 44:1 46:1 
64 1:-1 4:1 5:1 6:-1 7:1 8:-1 11:1 12:1 15:-1 16:1 17:1 18:1 19:1 21:1 24:1 27:1 29:1 30:1 32:1 33:1 34:1 35:1 36:-1 37:1 39:1 41:1 42:1 44:1 46:1 
56.48758400998889 1:1 2:1 5:1 6:1 7:1 8:-1 11:1 14:1 15:1 16:1 17:1 18:1 19:-1 21:1 23:1 26:1 29:1 30:1 32:1 33:1 34:1 35:1 36:1 37:1 38:1 41:-1 42:1 44:1 46:1 
64 1:1 2:1 5:1 6:1 7:1 8:-1 10:1 12:1 15:1 16:1 17:1 18:-1 19:-1 21:1 23:1 26:1 29:1 30:1 32:1 33:1 34:1 35:1 36:1 37:1 38:1 41:-1 42:-1 45:1 46:1 
64 1:1 2:1 5:1 6:1 7:1 8:-1 10:1 14:1 15:-1 16:-1 17:-1 18:1 19:1 21:1 23:1 26:1 29:-1 30:1 32:-1 33:-1 34:-1 35:-1 36:1 37:1 40:1 41:-1 42:1 44:1 46:-1 
64 1:1 4:1 5:1 6:1 7:1 8:-1 11:1 12:1 15:-1 16:1 17:1 18:-1 19:1 21:1 24:1 26:1 29:1 30:1 31:1 32:1 33:1 34:1 35:1 36:-1 37:1 39:1 41:-1 42:1 43:1 46:1 
64 1:-1 2:1 5:-1 6:1 7:-1 8:-1 9:1 14:1 15:-1 16:1 17:1 18:-1 19:1 21:1 23:1 26:1 29:1 30:-1 31:1 32:1 33:1 34:1 35:1 36:1 37:-1 40:1 41:-1 42:1 45:1 46:-1 
64 1:1 2:1 5:1 6:1 7:1 8:-1 11:1 14:1 15:1 16:1 17:1 18:1 19:-1 21:1 23:1 26:1 29:1 30:1 32:1 33:1 34:1 35:1 36:1 37:1 38:1 41:-1 42:1 44:1 46:-1 
64 1:-1 2:1 5:-1 6:-1 7:-1 8:-1 11:1 14:1 15:-1 16:1 17:1 18:-1 19:1 21:1 23:1 26:1 29:1 30:-1 31:1 32:1 33:1 34:1 35:1 36:1 37:-1 39:1 41:-1 42:1 45:1 46:1 
64 1:1 2:1 5:1 6:1 7:1 8:-1 9:1 12:1 15:1 16:1 17:1 18:1 19:-1 21:1 24:1 26:1 29:1 30:1 32:1 33:1 34:1 35:1 36:-1 37:1 40:1 41:-1 42:1 44:1 46:1 
64 1:-1 2:1 5:-1 6:1 7:-1 8:-1 11:1 12:1 15:-1 16:1 17:1 18:-1 19:1 22:1 24:1 26:1 29:1 30:-1 31:1 32:1 33:1 34:1 35:1 36:1 37:-1 39:1 41:-1 42:1 45:1 46:1 
64 1:-1 2:1 5:1 6:1 7:1 8:-1 9:1 14:1 15:-1 16:1 17:1 18:1 19:-1 21:1 25:1 26:1 29:-1 30:1 32:1 33:1 34:1 35:1 36:-1 37:1 39:1 41:-1 42:1 45:1 46:1 
64 1:1 2:1 5:1 6:1 7:1 8:-1 10:1 12:1 15:-1 16:1 17:1 18:1 19:1 21:1 24:1 26:1 29:1 30:1 32:1 33:1 34:1 35:1 36:-1 37:1 40:1 41:-1 42:1 44:1 46:1 
64 1:1 2:1 5:1 6:1 7:1 8:-1 9:1 14:1 15:-1 16:1 17:1 18:-1 19:1 21:1 25:1 26:1 29:1 30:1 32:1 33:1 34:1 35:1 36:-1 37:-1 38:1 41:-1 42:1 44:1 46:1 
64 1:-1 2:1 5:1 6:1 7:1 8:-1 11:1 14:1 15:-1 16:1 17:1 18:1 19:1 21:1 25:1 26:1 29:-1 30:1 32:1 33:1 34:1 35:1 36:-1 37:1 39:1 41:-1 42:1 43:1 46:1 
64 1:-1 2:1 5:1 6:1 7:1 8:-1 10:1 14:1 15:1 16:1 17:1 18:1 19:1 21:1 24:1 26:1 29:1 30:1 32:1 33:1 34:1 35:1 36:-1 37:1 39:1 41:1 42:1 45:1 46:1 
41.57539650002897 1:-1 2:1 5:-1 6:1 7:-1 8:-1 10:1 12:1 15:-1 16:1 17:1 18:-1 19:1 22:1 24:1 26:1 29:1 30:-1 32:1 33:1 34:1 35:1 36:-1 37:-1 40:1 41:-1 42:-1 45:1 46:1 
-64 1:1 2:1 5:1 6:1 7:1 8:-1 11:1 14:1 15:1 16:1 17:1 18:1 19:-1 21:1 23:1 26:1 29:1 30:1 32:1 33:1 34:1 35:1 36:-1 37:-1 39:1 41:-1 42:1 44:1 46:1 
-64 1:1 2:1 5:1 6:1 7:1 8:-1 11:1 12:1 15:-1 16:1 17:1 18:1 19:1 21:1 24:1 26:1 29:1 30:1 32:1 33:1 34:1 35:1 36:1 37:1 40:1 41:-1 42:1 44:1 46:1 
-64 1:1 4:1 5:1 6:1 7:1 8:-1 11:1 14:1 15:-1 16:1 17:1 18:1 19:1 21:1 25:1 28:1 29:1 30:1 32:1 33:1 34:-1 35:1 36:1 37:-1 39:1 41:-1 42:1 45:1 46:1 
-64 1:1 2:1 5:1 6:1 7:1 8:-1 9:1 14:1 15:-1 16:1 17:1 18:1 19:1 21:1 24:1 26:1 29:1 30:1 32:1 33:1 34:1 35:1 36:1 37:1 39:1 41:-1 42:1 44:1 46:1 
-64 1:1 2:1 5:1 6:1 7:1 8:-1 11:1 12:1 15:-1 16:1 17:1 18:1 19:-1 21:1 24:1 26:1 29:1 30:1 32:1 33:1 34:1 35:1 36:1 37:1 40:1 41:-1 42:-1 44:1 46:1 
-64 1:-1 2:1 5:1 6:1 7:1 8:-1 10:1 14:1 15:1 16:1 17:1 18:1 19:1 21:1 24:1 26:1 29:1 30:1 32:1 33:1 34:1 35:1 36:1 37:1 40:1 41:-1 42:1 45:1 46:1 
-64 1:-1 2:1 5:1 6:1 7:1 8:-1 11:1 12:1 15:1 16:1 17:1 18:1 19:-1 21:1 24:1 26:1 29:1 30:1 32:1 33:1 34:1 35:1 36:1 37:1 38:1 41:-1 42:1 45:1 46:1 
-64 1:1 2:1 5:1 6:1 7:1 8:-1 11:1 12:1 15:1 16:1 17:1 18:1 19:-1 21:1 25:1 26:1 29:1 30:1 32:1 33:1 34:1 35:1 36:1 37:-1 40:1 41:-1 42:1 45:1 46:1 
-64 1:1 4:1 5:1 6:1 7:1 8:-1 10:1 13:1 15:-1 16:1 17:1 18:1 19:1 22:1 24:1 26:1 29:1 30:1 32:1 33:1 34:1 35:1 36:1 37:1 38:1 41:-1 42:1 44:1 46:1 
-64 1:1 2:1 5:1 6:1 7:1 8:-1 9:1 14:1 15:-1 16:1 17:1 18:1 19:1 21:1 23:1 26:1 29:1 30:1 32:1 33:1 34:1 35:1 36:1 37:1 40:1 41:-1 42:-1 44:1 46:1 
-64 1:1 2:1 5:1 6:1 7:1 8:-1 11:1 14:1 15:-1 16:1 17:1 18:1 19:1 21:1 23:1 26:1 29:1 30:1 31:1 32:1 33:1 34:1 35:1 36:-1 37:1 40:1 41:-1 42:1 44:1 46:1 
-64 1:1 2:1 5:1 6:1 7:1 8:-1 11:1 14:1 15:-1 16:1 17:1 18:1 19:1 21:1 23:1 26:1 29:1 30:1 32:1 33:1 34:1 35:1 36:1 37:1 39:1 41:-1 42:-1 44:1 46:1 
-64 1:1 2:1 5:1 6:1 7:1 8:-1 11:1 14:1 15:-1 16:1 17:1 18:1 19:1 21:1 25:1 26:1 29:1 30:1 32:1 33:1 34:1 35:1 36:1 37:1 39:1 41:-1 42:1 43:1 46:1 
-64 1:1 2:1 5:1 6:1 7:1 8:-1 9:1 12:1 15:-1 16:1 17:1 18:1 19:-1 21:1 23:1 28:1 29:1 30:1 32:1 33:1 34:1 35:1 36:1 37:1 40:1 41:-1 42:1 44:1 46:1 
-64 1:-1 4:1 5:-1 6:1 7:-1 8:-1 9:1 14:1 15:-1 16:1 17:1 18:-1 19:1 21:1 23:1 28:1 29:1 30:1 31:1 32:1 33:1 34:1 35:1 36:-1 37:-1 39:1 41:-1 42:1 45:1 46:1 
-64 1:-1 2:1 5:1 6:1 7:1 8:-1 9:1 14:1 15:-1 16:1 17:1 18:1 19:1 21:1 23:1 26:1 29:1 30:1 32:1 33:1 34:1 35:1 36:-1 37:1 39:1 41:-1 42:1 45:1 46:1 
-64 1:1 2:1 5:1 6:1 7:1 8:-1 10:1 12:1 15:-1 16:1 17:1 18:1 19:1 21:1 24:1 26:1 29:1 30:1 32:1 33:1 34:1 35:1 36:-1 37:1 40:1 41:-1 42:1 44:1 46:1 
-64 1:1 2:1 5:1 6:1 7:1 8:-1 9:1 14:1 15:-1 16:1 17:1 18:1 19:1 21:1 24:1 26:1 29:1 30:1 32:1 33:1 34:1 35:1 36:-1 37:-1 39:1 41:-1 42:1 44:1 46:1 
-64 1:1 2:1 5:1 6:1 7:1 8:-1 10:1 14:1 15:-1 16:1 17:1 18:1 19:-1 21:1 24:1 26:1 29:1 30:1 32:1 33:1 34:1 35:1 36:-1 37:1 39:1 41:1 42:1 44:1 46:1 
-64 1:1 2:1 5:1 6:1 7:1 8:-1 9:1 14:1 15:-1 16:1 17:1 18:1 19:1 21:1 25:1 26:1 29:1 30:1 32:1 33:1 34:1 35:1 36:-1 37:1 39:1 41:-1 42:1 44:1 46:1 
-64 1:1 2:1 5:1 6:1 7:1 8:-1 9:1 14:1 15:1 16:1 17:1 18:1 19:-1 21:1 23:1 26:1 29:1 30:1 32:1 33:1 34:1 35:1 36:-1 37:-1 40:1 41:-1 42:1 45:1 46:1 
-64 1:-1 2:1 5:1 6:1 7:1 8:-1 10:1 14:1 15:1 16:1 17:1 18:1 19:-1 21:1 23:1 26:1 29:1 30:1 32:1 33:1 34:1 35:1 36:-1 37:1 40:1 41:1 42:1 44:1 46:1 
-64 1:1 4:1 5:1 6:1 7:1 8:-1 9:1 12:1 15:1 16:1 17:1 18:1 19:1 21:1 24:1 28:1 29:1 30:1 32:1 33:1 34:1 35:1 36:1 37:-1 40:1 41:-1 42:-1 45:1 46:1 
-64 1:1 2:1 5:1 6:1 7:1 8:-1 10:1 12:1 15:1 16:1 17:1 18:1 19:-1 21:1 23:1 26:1 29:1 30:1 32:1 33:1 34:1 35:1 36:1 37:1 40:1 41:-1 42:1 45:1 46:1 
-64 1:-1 2:1 5:1 6:-1 7:1 8:-1 11:1 13:1 15:-1 16:1 17:-1 18:-1 19:-1 22:1 24:1 27:1 29:-1 30:-1 32:-1 33:1 34:-1 35:1 36:-1 37:1 39:1 41:1 42:1 44:1 46:1 
-64 1:-1 4:1 5:1 6:1 7:1 8:-1 10:1 14:1 15:-1 16:1 17:1 18:1 19:1 21:1 23:1 26:1 29:1 30:1 32:1 33:1 34:-1 35:1 36:1 37:1 40:1 41:1 42:1 45:1 46:1 
-64 1:1 2:1 5:1 6:1 7:1 8:-1 11:1 12:1 15:1 16:-1 17:-1 18:-1 19:-1 21:1 23:1 26:1 29:-1 30:1 32:-1 33:1 34:-1 35:-1 36:1 37:-1 40:1 41:-1 42:1 45:1 46:-1 
-64 1:1 2:1 5:-1 6:1 7:1 8:-1 11:1 14:1 15:-1 16:1 17:1 18:-1 19:1 21:1 23:1 26:1 29:-1 30:-1 32:1 33:1 34:1 35:1 36:1 37:-1 39:1 41:-1 42:1 45:1 46:-1 
-64 1:-1 2:1 5:1 6:1 7:1 8:-1 10:1 12:1 15:-1 16:1 17:1 18:1 19:1 21:1 24:1 26:1 29:-1 30:1 32:1 33:1 34:1 35:1 36:-1 37:1 40:1 41:-1 42:1 44:1 46:1 
-64 1:1 2:1 5:1 6:1 7:1 8:-1 9:1 14:1 15:-1 16:1 17:1 18:1 19:-1 21:1 24:1 26:1 29:1 30:1 32:1 33:1 34:1 35:1 36:-1 37:-1 40:1 41:-1 42:1 44:1 46:1 
-64 1:-1 2:1 5:1 6:1 7:1 8:-1 9:1 12:1 15:-1 16:1 17:1 18:1 19:1 21:1 23:1 27:1 29:1 30:1 32:1 33:1 34:1 35:1 36:1 37:1 40:1 41:-1 42:1 45:1 46:1 
-64 1:1 2:1 5:1 6:1 7:1 8:-1 9:1 14:1 15:1 16:1 17:1 18:1 19:-1 21:1 23:1 26:1 29:1 30:1 32:1 33:1 34:1 35:1 36:-1 37:1 40:1 41:-1 42:1 44:1 46:1 
-64 1:1 2:1 5:1 6:-1 7:1 8:-1 10:1 14:1 15:-1 16:1 17:1 18:1 19:1 21:1 25:1 26:1 29:1 30:1 32:1 33:1 34:1 35:1 36:1 37:1 40:1 41:-1 42:1 43:1 46:1 
-64 1:1 2:1 5:1 6:1 7:1 8:-1 9:1 14:1 15:-1 16:1 17:1 18:1 19:1 21:1 23:1 26:1 29:1 30:1 31:1 32:1 33:1 34:1 35:1 36:-1 37:1 39:1 41:1 42:1 44:1 46:1 
-64 1:1 2:1 5:1 6:1 7:1 8:-1 10:1 12:1 15:-1 16:1 17:1 18:1 19:1 21:1 23:1 28:1 29:1 30:1 32:1 33:1 34:1 35:1 36:1 37:1 40:1 41:-1 42:1 44:1 46:1 
-13.98242212835394 1:-1 2:1 5:1 6:1 7:1 8:-1 11:1 12:1 15:-1 16:1 17:1 18:-1 19:-1 21:1 23:1 26:1 29:1 30:1 32:1 33:1 34:1 35:1 36:-1 37:1 40:1 41:-1 42:1 44:1 46:1 
-64 1:1 2:1 5:1 6:1 7:1 8:-1 9:1 12:1 15:-1 16:-1 17:1 18:1 19:1 21:1 24:1 26:1 29:1 30:1 32:1 33:1 34:-1 35:1 36:-1 37:-1 39:1 41:1 42:1 45:1 46:1 
-64 1:-1 2:1 5:1 6:1 7:1 8:-1 10:1 14:1 15:-1 16:1 17:1 18:1 19:1 21:1 23:1 26:1 29:1 30:1 32:1 33:1 34:1 35:1 36:1 37:1 40:1 41:-1 42:-1 44:1 46:1 
-64 1:1 2:1 5:1 6:1 7:1 8:-1 9:1 14:1 15:-1 16:-1 17:1 18:1 19:-1 21:1 23:1 26:1 29:1 30:1 32:-1 33:1 34:-1 35:-1 36:-1 37:-1 40:1 41:-1 42:1 43:1 46:1 
-64 1:1 2:1 5:1 6:1 7:1 8:-1 9:1 14:1 15:-1 16:1 17:1 18:1 19:-1 21:1 23:1 26:1 29:1 30:1 32:1 33:1 34:1 35:1 36:-1 37:-1 40:1 41:-1 42:1 44:1 46:1 
-64 1:1 2:1 5:1 6:1 7:-1 8:-1 9:1 14:1 15:-1 16:1 17:1 18:-1 19:-1 21:1 23:1 26:1 29:1 30:1 31:1 32:1 33:1 34:1 35:1 36:-1 37:-1 40:1 41:-1 42:1 44:1 46:1 
-9.564630312342404 1:1 3:1 5:1 6:1 7:1 8:-1 9:1 12:1 15:-1 16:1 17:1 18:-1 19:1 21:1 23:1 26:1 29:-1 30:-1 32:1 33:1 34:1 35:1 36:1 37:-1 40:1 41:-1 42:1 44:1 46:-1 
-64 1:-1 2:1 5:1 6:-1 7:1 8:-1 11:1 12:1 15:1 16:-1 17:-1 18:-1 19:-1 21:1 23:1 26:1 29:-1 30:1 32:-1 33:1 34:-1 35:-1 36:-1 37:1 40:1 41:1 42:1 45:1 46:1 
-64 1:1 2:1 5:1 6:1 7:1 8:-1 10:1 12:1 15:-1 16:1 17:1 18:1 19:-1 21:1 24:1 26:1 29:1 30:1 31:1 32:1 33:1 34:1 35:1 36:-1 37:1 40:1 41:1 42:1 44:1 46:1 
-64 1:-1 2:1 5:1 6:1 7:1 8:-1 10:1 12:1 15:-1 16:-1 17:1 18:1 19:1 21:1 24:1 28:1 29:1 30:1 32:1 33:1 34:-1 35:1 36:1 37:1 40:1 41:-1 42:-1 45:1 46:1 
-64 1:-1 2:1 5:1 6:1 7:1 8:-1 10:1 14:1 15:1 16:1 17:1 18:1 19:1 21:1 24:1 26:1 29:1 30:1 32:1 33:1 34:1 35:1 36:-1 37:1 39:1 41:1 42:1 45:1 46:1 
-64 1:1 2:1 5:1 6:1 7:1 8:-1 11:1 14:1 15:1 16:1 17:1 18:1 19:-1 21:1 25:1 26:1 29:1 30:1 32:1 33:1 34:1 35:1 36:1 37:1 40:1 41:-1 42:1 44:1 46:1 
-64 1:1 2:1 5:1 6:1 7:1 8:-1 11:1 14:1 15:-1 16:1 17:1 18:1 19:1 21:1 25:1 26:1 29:1 30:1 32:1 33:1 34:1 35:1 36:1 37:1 39:1 41:-1 42:-1 44:1 46:1 
-19.8110261001597 1:1 2:1 5:1 6:1 7:1 8:-1 10:1 14:1 15:1 16:1 17:1 18:1 19:1 21:1 23:1 26:1 29:1 30:1 32:1 33:1 34:1 35:1 36:-1 37:-1 40:1 41:-1 42:-1 44:1 46:1 
-64 1:-1 2:1 5:1 6:-1 7:1 8:-1 11:1 14:1 15:1 16:-1 17:-1 18:1 19:-1 21:1 25:1 26:1 29:-1 30:1 32:-1 33:1 34:-1 35:-1 36:-1 37:1 40:1 41:1 42:1 45:1 46:1 
-64 1:-1 2:1 5:1 6:1 7:1 8:-1 9:1 12:1 15:-1 16:1 17:1 18:1 19:1 21:1 23:1 28:1 29:1 30:1 32:1 33:1 34:1 35:1 36:1 37:1 40:1 41:-1 42:1 45:1 46:1 
-64 1:1 2:1 5:1 6:1 7:1 8:-1 9:1 12:1 15:-1 16:1 17:1 18:1 19:1 21:1 23:1 26:1 29:1 30:1 32:1 33:1 34:1 35:1 36:1 37:1 40:1 41:-1 42:1 44:1 46:1 
-64 1:-1 2:1 5:1 6:1 7:1 8:-1 9:1 14:1 15:1 16:1 17:1 18:1 19:1 21:1 23:1 26:1 29:1 30:1 32:1 33:1 34:1 35:1 36:-1 37:1 40:1 41:-1 42:1 44:1 46:1 
-64 1:1 2:1 5:1 6:1 7:1 8:-1 9:1 14:1 15:-1 16:1 17:1 18:1 19:1 21:1 24:1 26:1 29:1 30:1 32:1 33:1 34:1 35:1 36:-1 37:-1 39:1 41:-1 42:1 44:1 46:1 
-64 1:-1 4:1 5:-1 6:1 7:-1 8:-1 11:1 12:1 15:-1 16:1 17:1 18:-1 19:1 20:1 24:1 27:1 29:1 30:-1 31:1 32:1 33:1 34:1 35:1 36:1 37:-1 40:1 41:1 42:1 45:1 46:1 
-64 1:-1 2:1 5:1 6:1 7:1 8:-1 10:1 14:1 15:-1 16:-1 17:1 18:1 19:1 21:1 24:1 26:1 29:1 30:1 32:1 33:1 34:-1 35:1 36:1 37:1 39:1 41:-1 42:1 44:1 46:1 
-64 1:1 2:1 5:1 6:1 7:1 8:-1 9:1 14:1 15:1 16:1 17:1 18:1 19:-1 21:1 24:1 26:1 29:1 30:1 32:1 33:1 34:1 35:1 36:1 37:-1 39:1 41:-1 42:1 45:1 46:1 
-64 1:1 2:1 5:1 6:1 7:1 8:-1 10:1 14:1 15:-1 16:1 17:1 18:1 19:1 21:1 24:1 26:1 29:1 30:1 32:1 33:1 34:1 35:1 36:-1 37:1 39:1 41:-1 42:1 44:1 46:1 
-64 1:1 2:1 5:1 6:1 7:1 8:-1 11:1 14:1 15:-1 16:1 17:1 18:1 19:1 21:1 25:1 26:1 29:1 30:1 32:1 33:1 34:1 35:1 36:1 37:1 39:1 41:-1 42:1 44:1 46:1 
-64 1:-1 4:1 5:1 6:1 7:1 8:-1 10:1 14:1 15:-1 16:1 17:1 18:1 19:1 21:1 25:1 26:1 29:1 30:1 32:1 33:1 34:1 35:1 36:1 37:1 39:1 41:1 42:-1 45:1 46:1 
-64 1:1 2:1 5:1 6:1 7:1 8:-1 9:1 14:1 15:-1 16:1 17:1 18:1 19:1 21:1 24:1 26:1 29:1 30:1 32:1 33:1 34:1 35:1 36:1 37:1 39:1 41:-1 42:1 44:1 46:1 
-64 1:1 2:1 5:1 6:1 7:1 8:-1 10:1 14:1 15:-1 16:1 17:1 18:1 19:1 21:1 23:1 26:1 29:1 30:1 32:1 33:1 34:1 35:1 36:1 37:1 40:1 41:-1 42:-1 44:1 46:1 
-64 1:1 2:1 5:1 6:1 7:1 8:-1 9:1 14:1 15:-1 16:1 17:1 18:1 19:-1 21:1 23:1 26:1 29:1 30:1 32:1 33:1 34:1 35:1 36:-1 37:1 40:1 41:-1 42:1 44:1 46:1 
-64 1:1 2:1 5:1 6:1 7:1 8:-1 9:1 12:1 15:-1 16:1 17:1 18:1 19:1 22:1 24:1 26:1 29:1 30:1 32:1 33:1 34:1 35:1 36:-1 37:-1 40:1 41:-1 42:-1 44:1 46:1 
-64 1:1 2:1 5:1 6:1 7:1 8:-1 9:1 12:1 15:1 16:1 17:1 18:1 19:1 21:1 24:1 26:1 29:1 30:1 32:1 33:1 34:1 35:1 36:1 37:-1 40:1 41:-1 42:1 45:1 46:1 
-64 1:-1 4:1 5:1 6:1 7:1 8:-1 11:1 14:1 15:-1 16:1 17:1 18:1 19:1 21:1 25:1 26:1 29:1 30:1 31:1 32:1 33:1 34:1 35:1 36:1 37:1 39:1 41:-1 42:1 45:1 46:-1 
-64 1:1 2:1 5:1 6:1 7:1 8:-1 10:1 12:1 15:1 16:1 17:1 18:1 19:-1 21:1 25:1 26:1 29:1 30:1 32:1 33:1 34:1 35:1 36:1 37:1 40:1 41:-1 42:1 45:1 46:1 
-64 1:-1 2:1 5:1 6:1 7:1 8:-1 10:1 12:1 15:-1 16:1 17:1 18:1 19:-1 21:1 23:1 27:1 29:1 30:1 32:1 33:1 34:1 35:1 36:-1 37:1 38:1 41:1 42:1 45:1 46:1 
-64 1:-1 2:1 5:-1 6:-1 7:1 8:-1 10:1 14:1 15:-1 16:1 17:1 18:-1 19:1 21:1 23:1 26:1 29:-1 30:-1 32:1 33:1 34:1 35:1 36:-1 37:1 39:1 41:1 42:1 45:1 46:1 
-64 1:1 2:1 5:1 6:1 7:1 8:-1 9:1 14:1 15:-1 16:1 17:1 18:1 19:1 21:1 23:1 26:1 29:1 30:1 32:1 33:1 34:1 35:1 36:1 37:1 39:1 41:-1 42:1 44:1 46:1 
-64 1:1 2:1 5:1 6:1 7:1 8:-1 10:1 14:1 15:-1 16:1 17:1 18:1 19:1 21:1 23:1 26:1 29:1 30:1 32:1 33:1 34:1 35:1 36:1 37:-1 39:1 41:-1 42:1 44:1 46:1 
-64 1:1 2:1 5:1 6:-1 7:-1 8:-1 9:1 14:1 15:1 16:1 17:-1 18:1 19:-1 22:1 25:1 26:1 29:-1 30:1 32:1 33:1 34:1 35:1 36:1 37:1 38:1 41:-1 42:-1 45:1 46:1 
-64 1:1 2:1 5:1 6:1 7:1 8:-1 9:1 14:1 15:-1 16:1 17:1 18:1 19:1 21:1 23:1 26:1 29:1 30:1 32:1 33:1 34:1 35:1 36:1 37:1 40:1 41:-1 42:1 44:1 46:1 
-64 1:1 2:1 5:1 6:1 7:1 8:-1 10:1 14:1 15:-1 16:1 17:1 18:1 19:-1 21:1 23:1 26:1 29:1 30:1 32:1 33:1 34:1 35:1 36:1 37:1 40:1 41:-1 42:-1 44:1 46:1 
-64 1:1 2:1 5:1 6:1 7:1 8:-1 9:1 12:1 15:-1 16:-1 17:-1 18:1 19:1 22:1 23:1 26:1 29:-1 30:1 32:-1 33:-1 34:-1 35:-1 36:-1 37:-1 40:1 41:-1 42:1 45:1 46:-1 
-64 1:-1 2:1 5:1 6:1 7:1 8:-1 11:1 12:1 15:1 16:1 17:1 18:1 19:-1 21:1 24:1 26:1 29:1 30:1 32:1 33:1 34:1 35:1 36:-1 37:1 40:1 41:1 42:1 45:1 46:1 
-64 1:1 2:1 5:1 6:1 7:1 8:-1 11:1 12:1 15:1 16:1 17:1 18:1 19:-1 21:1 25:1 26:1 29:1 30:1 32:1 33:1 34:1 35:1 36:1 37:-1 40:1 41:-1 42:1 45:1 46:1 
-64 1:1 2:1 5:1 6:1 7:1 8:-1 9:1 12:1 15:1 16:1 17:1 18:1 19:-1 21:1 25:1 26:1 29:1 30:1 32:1 33:1 34:1 35:1 36:1 37:1 40:1 41:-1 42:1 45:1 46:1 
-64 1:1 2:1 5:1 6:1 7:1 8:-1 11:1 12:1 15:1 16:1 17:1 18:1 19:-1 21:1 25:1 26:1 29:1 30:1 32:1 33:1 34:1 35:1 36:1 37:-1 40:1 41:-1 42:1 45:1 46:1 
-64 1:1 2:1 5:1 6:1 7:1 8:-1 9:1 12:1 15:1 16:1 17:1 18:1 19:1 21:1 24:1 26:1 29:1 30:1 32:1 33:1 34:1 35:1 36:-1 37:1 40:1 41:-1 42:1 44:1 46:1 
-64 1:-1 2:1 5:1 6:1 7:1 8:-1 10:1 12:1 15:-1 16:1 17:1 18:1 19:-1 22:1 24:1 26:1 29:1 30:1 31:1 32:1 33:1 34:1 35:1 36:-1 37:1 38:1 41:1 42:1 45:1 46:-1 
-64 1:1 2:1 5:1 6:1 7:1 8:-1 11:1 14:1 15:1 16:1 17:1 18:1 19:1 21:1 24:1 26:1 29:1 30:1 32:1 33:1 34:1 35:1 36:1 37:-1 39:1 41:-1 42:1 45:1 46:1 
-64 1:1 2:1 5:1 6:1 7:1 8:-1 11:1 12:1 15:1 16:1 17:1 18:1 19:-1 22:1 23:1 26:1 29:1 30:1 32:1 33:1 34:1 35:1 36:-1 37:1 38:1 41:1 42:1 44:1 46:1 
-64 1:-1 2:1 5:1 6:1 7:1 8:-1 10:1 14:1 15:-1 16:1 17:1 18:1 19:1 21:1 23:1 26:1 29:1 30:1 32:1 33:1 34:1 35:1 36:1 37:1 40:1 41:-1 42:-1 44:1 46:1 
-64 1:1 2:1 5:1 6:1 7:1 8:-1 9:1 14:1 15:1 16:1 17:1 18:1 19:-1 21:1 23:1 26:1 29:1 30:1 32:1 33:1 34:1 35:1 36:-1 37:1 40:1 41:-1 42:1 44:1 46:1 
-64 1:1 2:1 5:1 6:1 7:1 8:-1 11:1 12:1 15:1 16:1 17:1 18:1 19:1 21:1 23:1 26:1 29:1 30:1 32:1 33:1 34:1 35:1 36:1 37:1 40:1 41:-1 42:1 44:1 46:1 
-64 1:1 2:1 5:1 6:1 7:1 8:-1 10:1 14:1 15:-1 16:1 17:1 18:1 19:1 21:1 24:1 26:1 29:1 30:1 32:1 33:1 34:1 35:1 36:-1 37:-1 39:1 41:-1 42:1 44:1 46:1 
-0.02333720531774314 1:1 2:1 5:1 6:1 7:1 8:-1 9:1 12:1 15:-1 16:-1 17:-1 18:1 19:1 22:1 23:1 26:1 29:-1 30:1 32:-1 33:-1 34:-1 35:-1 36:1 37:-1 40:1 41:-1 42:-1 45:1 46:-1 
-64 1:1 2:1 5:1 6:1 7:1 8:-1 11:1 14:1 15:-1 16:1 17:1 18:1 19:1 21:1 23:1 26:1 29:1 30:1 32:1 33:1 34:1 35:1 36:-1 37:1 39:1 41:1 42:1 44:1 46:1 
-64 1:1 2:1 5:1 6:1 7:1 8:-1 11:1 12:1 15:1 16:1 17:1 18:1 19:-1 21:1 24:1 26:1 29:1 30:1 32:1 33:1 34:1 35:1 36:-1 37:1 40:1 41:-1 42:1 44:1 46:1 
-64 1:-1 2:1 5:1 6:1 7:1 8:-1 10:1 12:1 15:1 16:1 17:1 18:1 19:1 21:1 24:1 26:1 29:1 30:1 32:1 33:1 34:1 35:1 36:-1 37:1 40:1 41:-1 42:1 45:1 46:1 
-64 1:1 2:1 5:1 6:1 7:1 8:-1 9:1 12:1 15:1 16:1 17:1 18:1 19:-1 21:1 24:1 26:1 29:1 30:1 32:1 33:1 34:1 35:1 36:-1 37:1 40:1 41:-1 42:1 44:1 46:1 
-64 1:1 2:1 5:1 6:1 7:1 8:-1 11:1 14:1 15:-1 16:1 17:1 18:-1 19:1 21:1 23:1 26:1 29:1 30:1 32:1 33:1 34:1 35:1 36:1 37:1 39:1 41:-1 42:1 44:1 46:1 
-64 1:-1 2:1 5:1 6:1 7:1 8:-1 10:1 14:1 15:1 16:1 17:1 18:1 19:-1 21:1 24:1 26:1 29:1 30:1 32:1 33:1 34:1 35:1 36:1 37:1 40:1 41:-1 42:1 45:1 46:1 
-64 1:1 2:1 5:1 6:1 7:1 8:-1 11:1 12:1 15:1 16:1 17:1 18:1 19:-1 21:1 25:1 26:1 29:1 30:1 32:1 33:1 34:1 35:1 36:1 37:1 40:1 41:-1 42:1 45:1 46:1 
-64 1:1 2:1 5:1 6:1 7:1 8:-1 11:1 12:1 15:-1 16:1 17:1 18:1 19:1 21:1 24:1 26:1 29:1 30:1 32:1 33:1 34:1 35:1 36:1 37:1 40:1 41:-1 42:1 44:1 46:1 
-64 1:-1 2:1 5:1 6:1 7:1 8:-1 9:1 14:1 15:-1 16:1 17:1 18:1 19:-1 21:1 23:1 28:1 29:1 30:1 32:1 33:1 34:1 35:1 36:1 37:1 40:1 41:-1 42:1 45:1 46:1 
-64 1:1 2:1 5:1 6:1 7:1 8:-1 11:1 14:1 15:1 16:1 17:1 18:1 19:-1 20:1 24:1 26:1 29:1 30:1 32:1 33:1 34:1 35:1 36:1 37:-1 38:1 41:-1 42:1 45:1 46:1 
-64 1:1 2:1 5:1 6:1 7:-1 8:-1 9:1 14:1 15:-1 16:1 17:1 18:-1 19:-1 21:1 23:1 26:1 29:1 30:1 31:1 32:1 33:1 34:1 35:1 36:-1 37:-1 40:1 41:-1 42:1 44:1 46:1 
-64 1:1 2:1 5:1 6:1 7:1 8:-1 9:1 14:1 15:-1 16:-1 17:1 18:1 19:-1 21:1 23:1 26:1 29:1 30:1 32:-1 33:1 34:-1 35:-1 36:-1 37:1 40:1 41:-1 42:1 43:1 46:1 
